{"learner":{"attributes":{"best_iteration":"49","best_score":"14.60329056471539","scikit_learn":"{\"_estimator_type\": \"regressor\"}"},"feature_names":[],"feature_types":[],"gradient_booster":{"model":{"cats":{"enc":[],"feature_segments":[],"sorted_idx":[]},"gbtree_model_param":{"num_parallel_tree":"1","num_trees":"70"},"iteration_indptr":[0,1,2,3,4,5,6,7,8,9,10,11,12,13,14,15,16,17,18,19,20,21,22,23,24,25,26,27,28,29,30,31,32,33,34,35,36,37,38,39,40,41,42,43,44,45,46,47,48,49,50,51,52,53,54,55,56,57,58,59,60,61,62,63,64,65,66,67,68,69,70],"tree_info":[0,0,0,0,0,0,0,0,0,0,0,0,0,0,0,0,0,0,0,0,0,0,0,0,0,0,0,0,0,0,0,0,0,0,0,0,0,0,0,0,0,0,0,0,0,0,0,0,0,0,0,0,0,0,0,0,0,0,0,0,0,0,0,0,0,0,0,0,0,0],"trees":[{"base_weights":[9.007043E-2,-3.6167629E0,3.8863926E0,-6.0174694E0,-1.6551886E0,1.9328228E0,6.409466E0,-8.048186E0,-4.5934296E0,-3.0243783E0,-1.0618026E0,2.669521E0,5.532738E-1,5.4461164E0,9.448577E0,-6.7112145E0,-1.1722932E1,-4.8636413E0,2.6511514E0,-4.8816643E0,-1.3779415E0,-7.036784E-1,-4.972155E0,2.5316398E0,1.4179495E1,2.1165838E0,-2.3678803E0,5.976208E0,1.8145759E0,2.863616E0,1.0130673E1,-7.762343E0,-6.304975E-2,-2.034707E1,-1.038938E1,-3.491358E0,-6.3126783E0,-5.4568586E0,7.8237166E0,-3.1002042E0,-7.288894E0,-5.4013796E0,-2.6090406E-2,-7.9664177E-1,1.7192682E1,1.1779836E1,-5.6342373E0,2.6109245E0,-1.5729338E1,8.414395E0,1.2589918E0,1.6500168E0,9.556052E0,9.284426E0,-2.9789956E0,5.4797297E0,8.732618E0,1.0734987E1,-9.978176E-3,-8.521605E0,5.264645E0,8.980036E0,1.52847185E1,-4.17022E-1,1.1879015E-1,-4.6617627E-1,1.1664939E-1,-4.117945E-1,-1.1963291E0,-2.8929323E-1,-6.754741E-1,-2.719258E-1,-9.1548696E-2,-1.9444685E-1,-4.1332442E-1,3.289918E-1,-5.2160025E-1,-2.7813357E-1,5.9255975E-1,-3.5353094E-1,-4.916588E-2,-2.2929795E-1,-6.3903445E-1,-5.3416263E-2,-4.5259157E-1,-6.001136E-1,2.8271666E-2,8.414583E-3,-1.03840545E-1,1.4521798E0,5.217981E-2,7.4082655E-1,2.4082649E-1,-3.730891E-1,7.679015E-2,1.2026103E-1,4.1312823E-1,2.6811987E-1,-1.0510082E0,8.021798E-1,2.0443533E-1,1.2317492E-1,-1.13583855E-1,1.7681198E0,3.6452717E-1,6.0761577E-1,-1.0320193E-2,1.8154182E-1,-1.9263175E-1,6.817008E-1,2.6506484E-1,5.083997E-1,7.244546E-2,-1.23842405E-2,8.120042E-1,3.1001264E-2,-1.3758402E0,-5.510082E-1,-7.584017E-2,1.126753E-1,8.9686644E-1,-1.2424024E-1,4.741027E-1,1.0087034E0,4.6169838E-1],"categories":[],"categories_nodes":[],"categories_segments":[],"categories_sizes":[],"default_left":[0,0,0,0,0,0,0,0,0,0,0,0,0,0,0,0,0,0,0,0,0,0,0,0,0,0,0,0,0,0,0,0,0,0,0,0,0,0,0,0,0,0,0,0,0,0,0,0,0,0,0,0,0,0,0,0,0,0,0,0,0,0,0,0,0,0,0,0,0,0,0,0,0,0,0,0,0,0,0,0,0,0,0,0,0,0,0,0,0,0,0,0,0,0,0,0,0,0,0,0,0,0,0,0,0,0,0,0,0,0,0,0,0,0,0,0,0,0,0,0,0,0,0,0,0],"id":0,"left_children":[1,3,5,7,9,11,13,15,17,19,21,23,25,27,29,31,33,35,37,39,41,43,45,47,49,51,53,55,57,59,61,63,65,67,69,71,73,75,77,79,81,83,85,87,89,91,93,95,97,99,-1,101,103,105,107,109,111,113,115,117,119,121,123,-1,-1,-1,-1,-1,-1,-1,-1,-1,-1,-1,-1,-1,-1,-1,-1,-1,-1,-1,-1,-1,-1,-1,-1,-1,-1,-1,-1,-1,-1,-1,-1,-1,-1,-1,-1,-1,-1,-1,-1,-1,-1,-1,-1,-1,-1,-1,-1,-1,-1,-1,-1,-1,-1,-1,-1,-1,-1,-1,-1,-1,-1],"loss_changes":[1.06161664E5,1.7964918E4,1.8358E4,4.9253906E3,1.7045757E3,2.1348096E3,4.7090234E3,3.3899297E3,1.9919961E3,1.935042E3,2.052276E3,2.1383066E3,3.3523804E3,2.3704414E3,1.7227031E3,3.6333086E3,1.9392422E3,1.9167383E3,1.5944436E3,1.2553413E3,1.838271E3,2.2530435E3,1.4305879E3,2.0028564E3,8.028157E2,1.6433752E3,1.8506089E3,1.4287578E3,2.587955E3,1.0836405E3,1.9561875E3,2.65133E3,1.6193197E3,8.4339453E2,2.2774375E3,1.6162568E3,2.2077559E3,9.6690564E2,1.3059323E3,1.4470978E3,1.811728E3,1.3348264E3,1.8061721E3,1.6556221E3,1.3093604E3,3.4362854E1,1.5707847E3,1.5495898E3,7.8227454E2,3.3042102E2,0E0,1.444388E3,1.3791948E3,3.563507E2,1.4229929E3,1.2619492E3,1.6894102E3,1.6364607E3,2.3218708E3,1.0579797E2,1.1806731E3,1.6984277E3,1.6775186E3,0E0,0E0,0E0,0E0,0E0,0E0,0E0,0E0,0E0,0E0,0E0,0E0,0E0,0E0,0E0,0E0,0E0,0E0,0E0,0E0,0E0,0E0,0E0,0E0,0E0,0E0,0E0,0E0,0E0,0E0,0E0,0E0,0E0,0E0,0E0,0E0,0E0,0E0,0E0,0E0,0E0,0E0,0E0,0E0,0E0,0E0,0E0,0E0,0E0,0E0,0E0,0E0,0E0,0E0,0E0,0E0,0E0,0E0,0E0,0E0,0E0,0E0],"parents":[2147483647,0,0,1,1,2,2,3,3,4,4,5,5,6,6,7,7,8,8,9,9,10,10,11,11,12,12,13,13,14,14,15,15,16,16,17,17,18,18,19,19,20,20,21,21,22,22,23,23,24,24,25,25,26,26,27,27,28,28,29,29,30,30,31,31,32,32,33,33,34,34,35,35,36,36,37,37,38,38,39,39,40,40,41,41,42,42,43,43,44,44,45,45,46,46,47,47,48,48,49,49,51,51,52,52,53,53,54,54,55,55,56,56,57,57,58,58,59,59,60,60,61,61,62,62],"right_children":[2,4,6,8,10,12,14,16,18,20,22,24,26,28,30,32,34,36,38,40,42,44,46,48,50,52,54,56,58,60,62,64,66,68,70,72,74,76,78,80,82,84,86,88,90,92,94,96,98,100,-1,102,104,106,108,110,112,114,116,118,120,122,124,-1,-1,-1,-1,-1,-1,-1,-1,-1,-1,-1,-1,-1,-1,-1,-1,-1,-1,-1,-1,-1,-1,-1,-1,-1,-1,-1,-1,-1,-1,-1,-1,-1,-1,-1,-1,-1,-1,-1,-1,-1,-1,-1,-1,-1,-1,-1,-1,-1,-1,-1,-1,-1,-1,-1,-1,-1,-1,-1,-1,-1,-1],"split_conditions":[1.1057427E-2,-7.328297E-1,8.104585E-1,-1.1322607E0,-5.186538E-1,4.3169725E-1,1.6320653E0,8.057158E-1,1.7028518E0,-1.6634358E-1,1.4952943E0,2.402337E0,3.506742E-1,8.057158E-1,-1.2958724E0,7.919931E-1,-1.4464868E0,5.100385E-2,-1.2450758E0,1.8209186E-1,-6.572222E-1,2.341776E0,-1.1341844E0,2.4148953E0,1.0474255E0,1.5692353E0,-1.1580669E0,1.2005992E0,-4.6942988E-1,-1.4311848E0,1.2060169E0,4.9332443E-1,-1.9763424E0,-1.7165325E0,-8.560595E-2,-1.099222E0,1.5993968E-1,-1.0164526E0,-1.7836487E-1,-8.109016E-1,4.373694E-1,-1.8962714E-1,-1.375388E0,2.6495707E-1,-1.475134E-1,-1.483265E0,6.403183E-1,1.894434E0,7.898321E-1,1.641978E-1,1.2589918E0,7.290894E-1,-1.6437978E0,1.0541224E0,-8.714677E-1,-1.2147003E0,1.0175594E0,-5.477793E-1,1.9574916E0,1.4445237E0,1.6660361E0,-1.3632928E0,3.6148262E-1,-4.17022E-1,1.1879015E-1,-4.6617627E-1,1.1664939E-1,-4.117945E-1,-1.1963291E0,-2.8929323E-1,-6.754741E-1,-2.719258E-1,-9.1548696E-2,-1.9444685E-1,-4.1332442E-1,3.289918E-1,-5.2160025E-1,-2.7813357E-1,5.9255975E-1,-3.5353094E-1,-4.916588E-2,-2.2929795E-1,-6.3903445E-1,-5.3416263E-2,-4.5259157E-1,-6.001136E-1,2.8271666E-2,8.414583E-3,-1.03840545E-1,1.4521798E0,5.217981E-2,7.4082655E-1,2.4082649E-1,-3.730891E-1,7.679015E-2,1.2026103E-1,4.1312823E-1,2.6811987E-1,-1.0510082E0,8.021798E-1,2.0443533E-1,1.2317492E-1,-1.13583855E-1,1.7681198E0,3.6452717E-1,6.0761577E-1,-1.0320193E-2,1.8154182E-1,-1.9263175E-1,6.817008E-1,2.6506484E-1,5.083997E-1,7.244546E-2,-1.23842405E-2,8.120042E-1,3.1001264E-2,-1.3758402E0,-5.510082E-1,-7.584017E-2,1.126753E-1,8.9686644E-1,-1.2424024E-1,4.741027E-1,1.0087034E0,4.6169838E-1],"split_indices":[56,56,56,17,51,52,56,28,44,10,52,1,21,28,32,51,1,5,57,54,17,13,36,55,18,45,29,3,39,44,49,39,56,55,46,56,23,42,54,1,19,43,49,44,4,9,16,10,1,20,0,7,30,51,55,45,32,51,31,9,3,51,42,0,0,0,0,0,0,0,0,0,0,0,0,0,0,0,0,0,0,0,0,0,0,0,0,0,0,0,0,0,0,0,0,0,0,0,0,0,0,0,0,0,0,0,0,0,0,0,0,0,0,0,0,0,0,0,0,0,0,0,0,0,0],"split_type":[0,0,0,0,0,0,0,0,0,0,0,0,0,0,0,0,0,0,0,0,0,0,0,0,0,0,0,0,0,0,0,0,0,0,0,0,0,0,0,0,0,0,0,0,0,0,0,0,0,0,0,0,0,0,0,0,0,0,0,0,0,0,0,0,0,0,0,0,0,0,0,0,0,0,0,0,0,0,0,0,0,0,0,0,0,0,0,0,0,0,0,0,0,0,0,0,0,0,0,0,0,0,0,0,0,0,0,0,0,0,0,0,0,0,0,0,0,0,0,0,0,0,0,0,0],"sum_hessian":[7.542E3,3.816E3,3.726E3,1.715E3,2.101E3,2.101E3,1.625E3,7.05E2,1.01E3,6.34E2,1.467E3,1.369E3,7.32E2,1.236E3,3.89E2,5.19E2,1.86E2,9.74E2,3.6E1,2.97E2,3.37E2,1.345E3,1.22E2,1.354E3,1.5E1,4.77E2,2.55E2,1.078E3,1.58E2,3.7E1,3.52E2,4.48E2,7.1E1,2.3E1,1.63E2,5.02E2,4.72E2,1.4E1,2.2E1,1.72E2,1.25E2,8.4E1,2.53E2,1.339E3,6E0,4E0,1.18E2,1.349E3,5E0,1.1E1,4E0,4.5E2,2.7E1,1.2E1,2.43E2,9.16E2,1.62E2,2.6E1,1.32E2,6E0,3.1E1,2.9E2,6.2E1,4.24E2,2.4E1,1.4E1,5.7E1,6E0,1.7E1,6.7E1,9.6E1,2.3E2,2.72E2,2.12E2,2.6E2,4E0,1E1,5E0,1.7E1,5.9E1,1.13E2,8.5E1,4E1,3.9E1,4.5E1,1.1E1,2.42E2,7.64E2,5.75E2,3E0,3E0,2E0,2E0,9.4E1,2.4E1,1.303E3,4.6E1,1E0,4E0,3E0,8E0,3.73E2,7.7E1,1E0,2.6E1,9E0,3E0,2.8E1,2.15E2,1.8E1,8.98E2,1.35E2,2.7E1,9E0,1.7E1,1.3E2,2E0,4E0,2E0,2.6E1,5E0,1.2E1,2.78E2,3.3E1,2.9E1],"tree_param":{"num_deleted":"0","num_feature":"58","num_nodes":"125","size_leaf_vector":"1"}},{"base_weights":[1.5443803E-2,-2.8335717E0,3.8412347E0,-5.3761377E0,-6.8427324E-1,2.1328247E0,5.8077703E0,-6.863224E0,-1.8261504E0,-1.6017994E0,1.2829341E0,2.323846E-1,3.131017E0,4.493748E0,8.122516E0,-5.09488E0,-8.512997E0,-9.260163E0,-1.1544205E0,-8.015702E-1,-3.5314631E0,2.148743E0,-2.857627E0,-1.2007248E1,4.8051184E-1,2.7391126E0,9.0151615E0,6.9322495E0,3.2447078E0,1.0396254E1,5.7513237E0,-5.2992706E0,2.3721216E1,-9.223598E0,-2.2860773E0,-1.5101202E1,7.573294E-1,-8.2434696E-1,-1.1357626E1,-1.0157657E1,-6.007256E-1,-3.9859405E0,4.790385E0,3.654952E0,7.527164E-2,-1.2065048E1,-1.1879299E0,-1.4244683E1,3.1511337E-1,3.118552E0,-9.925014E-1,3.3687285E-1,3.4789784E0,1.9212078E1,4.3482146E0,7.403373E0,-7.274864E0,4.704264E0,8.604297E-1,4.002191E0,1.1517221E1,3.1120715E0,9.503838E0,-2.0014215E-1,-4.2987204E-1,-3.2145458E-1,1.6433033E0,-4.9903575E-1,-2.184047E-1,8.691889E-1,-1.6662806E-1,-1.2755096E-1,-8.708291E-1,-2.4976897E-1,8.9319956E-1,3.9565723E-2,-1.5938224E-1,2.4291877E-1,-7.589755E-1,-7.6002544E-1,-1.408029E-1,-2.4753746E-3,-1.9573075E-1,-1.4360738E-1,-3.5840678E-1,4.2532888E-1,-5.88785E-1,-3.021061E-1,2.1500905E-1,-2.6873577E-2,6.493834E-1,-9.691914E-2,-8.6843807E-1,-3.1590244E-1,6.626292E-2,-9.753935E-1,-3.3036914E-1,2.9562792E-1,1.0750842E-2,1.7991243E-1,-1.1738064E-1,-1.5707593E-1,9.1983885E-2,2.2325177E-1,1.0158079E-2,4.525461E-1,1.4275211E0,3.139397E-1,-7.1413773E-1,4.1992646E-1,7.5391226E-2,-1.2700928E0,-2.1210762E-2,1.0925161E-1,3.5091087E-1,-7.4069554E-1,6.2435158E-2,3.2771865E-1,-1.19582094E-1,-1.7284472E-1,5.96144E-1,9.955036E-1,1.0484894E-1,5.889377E-1,1.3325761E-1],"categories":[],"categories_nodes":[],"categories_segments":[],"categories_sizes":[],"default_left":[0,0,0,0,0,0,0,0,0,0,0,0,0,0,0,0,0,0,0,0,0,0,0,0,0,0,0,0,0,0,0,0,0,0,0,0,0,0,0,0,0,0,0,0,0,0,0,0,0,0,0,0,0,0,0,0,0,0,0,0,0,0,0,0,0,0,0,0,0,0,0,0,0,0,0,0,0,0,0,0,0,0,0,0,0,0,0,0,0,0,0,0,0,0,0,0,0,0,0,0,0,0,0,0,0,0,0,0,0,0,0,0,0,0,0,0,0,0,0,0,0,0,0,0,0],"id":1,"left_children":[1,3,5,7,9,11,13,15,17,19,21,23,25,27,29,31,33,35,37,39,41,43,45,47,49,51,53,55,57,59,61,63,65,67,69,71,73,75,77,79,81,83,85,87,89,91,93,95,-1,97,99,101,103,105,107,109,111,113,115,117,119,121,123,-1,-1,-1,-1,-1,-1,-1,-1,-1,-1,-1,-1,-1,-1,-1,-1,-1,-1,-1,-1,-1,-1,-1,-1,-1,-1,-1,-1,-1,-1,-1,-1,-1,-1,-1,-1,-1,-1,-1,-1,-1,-1,-1,-1,-1,-1,-1,-1,-1,-1,-1,-1,-1,-1,-1,-1,-1,-1,-1,-1,-1,-1],"loss_changes":[8.319768E4,2.3904527E4,1.0933355E4,1.0566859E4,4.2834297E3,3.3095454E3,4.5685195E3,4.0759453E3,2.950544E3,2.495641E3,2.712766E3,1.8340354E3,2.6133965E3,2.9258281E3,2.8893398E3,4.154285E3,3.2046328E3,2.8785522E3,1.826093E3,2.1454897E3,1.8118057E3,1.9516506E3,1.9996097E3,5.8137024E2,2.2996433E3,1.9076855E3,3.2952427E3,2.2425674E3,2.2301045E3,1.9464805E3,2.644458E3,2.8731582E3,1.5898992E3,2.3606328E3,1.622331E3,8.563823E2,1.9590205E3,2.0223976E3,1.1273345E3,8.457363E2,2.0493364E3,1.5743496E3,1.63924E3,2.290955E3,2.095744E3,1.0405112E3,1.4523838E3,3.1326587E2,0E0,1.7185776E3,2.3724187E3,1.3335247E3,2.651041E3,1.8291367E3,1.8881064E3,1.8471719E3,1.3552225E3,2.3047607E3,1.5095507E3,7.173594E2,1.4747734E3,2.6864932E3,1.6954834E3,0E0,0E0,0E0,0E0,0E0,0E0,0E0,0E0,0E0,0E0,0E0,0E0,0E0,0E0,0E0,0E0,0E0,0E0,0E0,0E0,0E0,0E0,0E0,0E0,0E0,0E0,0E0,0E0,0E0,0E0,0E0,0E0,0E0,0E0,0E0,0E0,0E0,0E0,0E0,0E0,0E0,0E0,0E0,0E0,0E0,0E0,0E0,0E0,0E0,0E0,0E0,0E0,0E0,0E0,0E0,0E0,0E0,0E0,0E0,0E0,0E0,0E0],"parents":[2147483647,0,0,1,1,2,2,3,3,4,4,5,5,6,6,7,7,8,8,9,9,10,10,11,11,12,12,13,13,14,14,15,15,16,16,17,17,18,18,19,19,20,20,21,21,22,22,23,23,24,24,25,25,26,26,27,27,28,28,29,29,30,30,31,31,32,32,33,33,34,34,35,35,36,36,37,37,38,38,39,39,40,40,41,41,42,42,43,43,44,44,45,45,46,46,47,47,49,49,50,50,51,51,52,52,53,53,54,54,55,55,56,56,57,57,58,58,59,59,60,60,61,61,62,62],"right_children":[2,4,6,8,10,12,14,16,18,20,22,24,26,28,30,32,34,36,38,40,42,44,46,48,50,52,54,56,58,60,62,64,66,68,70,72,74,76,78,80,82,84,86,88,90,92,94,96,-1,98,100,102,104,106,108,110,112,114,116,118,120,122,124,-1,-1,-1,-1,-1,-1,-1,-1,-1,-1,-1,-1,-1,-1,-1,-1,-1,-1,-1,-1,-1,-1,-1,-1,-1,-1,-1,-1,-1,-1,-1,-1,-1,-1,-1,-1,-1,-1,-1,-1,-1,-1,-1,-1,-1,-1,-1,-1,-1,-1,-1,-1,-1,-1,-1,-1,-1,-1,-1,-1,-1,-1],"split_conditions":[3.5004392E-1,-5.083769E-1,9.8916596E-1,-3.2667354E-1,3.3520818E-1,-3.5686716E-1,7.695409E-1,2.5963825E-1,-1.3827899E0,1.1055899E0,1.0615138E0,-1.9399638E0,1.686301E0,-6.717965E-1,-8.645232E-1,1.9620007E0,9.7472185E-1,2.8909845E-2,1.9252573E0,-2.0106606E0,1.2746009E0,4.091191E-1,-9.5505404E-1,1.0779439E0,-3.1809315E-1,-3.7711096E-1,-8.3792365E-1,1.4029619E0,3.9474735E-1,-8.3903426E-1,5.100385E-2,4.767917E-1,-1.1852137E0,4.0718466E-1,-2.162205E0,-9.805661E-1,7.5403696E-1,4.881336E-1,-2.1534693E0,-2.3837632E-2,1.1215564E0,1.2946562E0,1.1027241E0,-1.4102945E0,1.6528814E0,-2.589893E-1,-5.963555E-1,-6.8136626E-1,3.1511337E-1,9.1094375E-2,-7.804965E-1,-6.2315243E-1,1.0284288E0,4.7998574E-1,2.273243E0,9.7673595E-1,1.0845857E0,1.3699654E-1,-2.394719E0,8.8093674E-1,-6.8889153E-1,-1.3609493E0,-2.0878568E-2,-2.0014215E-1,-4.2987204E-1,-3.2145458E-1,1.6433033E0,-4.9903575E-1,-2.184047E-1,8.691889E-1,-1.6662806E-1,-1.2755096E-1,-8.708291E-1,-2.4976897E-1,8.9319956E-1,3.9565723E-2,-1.5938224E-1,2.4291877E-1,-7.589755E-1,-7.6002544E-1,-1.408029E-1,-2.4753746E-3,-1.9573075E-1,-1.4360738E-1,-3.5840678E-1,4.2532888E-1,-5.88785E-1,-3.021061E-1,2.1500905E-1,-2.6873577E-2,6.493834E-1,-9.691914E-2,-8.6843807E-1,-3.1590244E-1,6.626292E-2,-9.753935E-1,-3.3036914E-1,2.9562792E-1,1.0750842E-2,1.7991243E-1,-1.1738064E-1,-1.5707593E-1,9.1983885E-2,2.2325177E-1,1.0158079E-2,4.525461E-1,1.4275211E0,3.139397E-1,-7.1413773E-1,4.1992646E-1,7.5391226E-2,-1.2700928E0,-2.1210762E-2,1.0925161E-1,3.5091087E-1,-7.4069554E-1,6.2435158E-2,3.2771865E-1,-1.19582094E-1,-1.7284472E-1,5.96144E-1,9.955036E-1,1.0484894E-1,5.889377E-1,1.3325761E-1],"split_indices":[57,17,57,57,48,4,48,19,47,36,33,10,17,23,36,10,14,26,23,53,17,20,57,8,29,39,24,9,12,51,5,23,0,8,48,3,23,44,45,17,12,29,11,20,8,13,12,4,0,11,20,15,6,48,6,46,17,53,33,10,17,23,28,0,0,0,0,0,0,0,0,0,0,0,0,0,0,0,0,0,0,0,0,0,0,0,0,0,0,0,0,0,0,0,0,0,0,0,0,0,0,0,0,0,0,0,0,0,0,0,0,0,0,0,0,0,0,0,0,0,0,0,0,0,0],"split_type":[0,0,0,0,0,0,0,0,0,0,0,0,0,0,0,0,0,0,0,0,0,0,0,0,0,0,0,0,0,0,0,0,0,0,0,0,0,0,0,0,0,0,0,0,0,0,0,0,0,0,0,0,0,0,0,0,0,0,0,0,0,0,0,0,0,0,0,0,0,0,0,0,0,0,0,0,0,0,0,0,0,0,0,0,0,0,0,0,0,0,0,0,0,0,0,0,0,0,0,0,0,0,0,0,0,0,0,0,0,0,0,0,0,0,0,0,0,0,0,0,0,0,0,0,0],"sum_hessian":[7.631E3,4.374E3,3.257E3,2.003E3,2.371E3,1.744E3,1.513E3,1.411E3,5.92E2,1.617E3,7.54E2,6.01E2,1.143E3,9.67E2,5.46E2,6.83E2,7.28E2,4.8E1,5.44E2,1.144E3,4.73E2,6.24E2,1.3E2,1.1E1,5.9E2,1.073E3,7E1,3.26E2,6.41E2,2.77E2,2.69E2,6.79E2,4E0,6.53E2,7.5E1,3E1,1.8E1,5.28E2,1.6E1,2.3E1,1.121E3,4.49E2,2.4E1,3.61E2,2.63E2,1.9E1,1.11E2,1E1,1E0,2.11E2,3.79E2,2.53E2,8.2E2,2.1E1,4.9E1,3.16E2,1E1,3.97E2,2.44E2,4.2E1,2.35E2,1.59E2,1.1E2,4.89E2,1.9E2,1E0,3E0,5.64E2,8.9E1,3E0,7.2E1,5E0,2.5E1,1.4E1,4E0,3.14E2,2.14E2,3E0,1.3E1,1.3E1,1E1,9.62E2,1.59E2,3.34E2,1.15E2,2E1,4E0,2.2E1,3.39E2,2.52E2,1.1E1,7E0,1.2E1,3.6E1,7.5E1,5E0,5E0,1.07E2,1.04E2,8.6E1,2.93E2,7.6E1,1.77E2,6.3E2,1.9E2,1.1E1,1E1,4.5E1,4E0,2.7E2,4.6E1,2E0,8E0,1.91E2,2.06E2,5E0,2.39E2,3E1,1.2E1,6E0,2.29E2,8E0,1.51E2,8.2E1,2.8E1],"tree_param":{"num_deleted":"0","num_feature":"58","num_nodes":"125","size_leaf_vector":"1"}},{"base_weights":[-3.4666027E-5,-3.5130565E0,3.5710847E0,-7.098732E0,-2.1895373E0,1.7157248E0,5.953402E0,-6.3330626E0,-9.944216E0,-1.7667824E0,-4.9700665E0,1.9146869E0,-4.570325E0,4.5460234E0,8.09212E0,-6.9444366E0,-2.449973E0,-1.5069955E1,-8.350017E0,-7.9342494E0,-1.6359216E0,-7.451333E0,-2.972913E0,1.3950773E0,4.11612E0,-5.869798E0,9.186128E0,1.2766457E0,5.2254224E0,7.2864285E0,1.2780184E1,-3.0810065E0,-7.6738477E0,-1.1844326E1,-1.0967315E0,-2.3390213E1,-1.0074966E1,-1.688782E1,-7.396366E0,-1.0546801E1,2.2872317E0,-2.3338776E0,-5.7165486E-1,1.924661E0,-8.701809E0,-2.177506E0,-1.1641091E1,-3.4677024E0,1.6247319E0,4.6921306E0,-4.8635497E0,4.1742406E0,-7.9620905E0,7.0563847E-1,1.5973078E-1,3.1358705E0,-7.280985E0,3.167663E0,6.809678E0,7.861912E0,2.2456077E-1,1.6633242E1,6.3948445E0,-2.1137686E-1,4.575506E-1,-4.8736864E-1,-2.5939578E-1,-5.8779288E-2,-8.820392E-1,-3.0711648E-1,3.9223604E-2,-5.577879E-1,-1.4288896E0,-1.1222396E-1,-7.221326E-1,-4.4345984E-1,-1.1898897E0,-1.9149065E-1,-4.938987E-1,-2.3151839E-1,-7.3592484E-1,-3.153708E-1,5.250337E-1,-2.5418472E-1,-6.903097E-2,-2.8340116E-1,1.0741815E-3,5.3552324E-1,-1.8150191E-1,2.9626068E-1,-4.7462127E-1,-1.6989012E-1,2.6350588E-1,-1.0053523E0,-2.5976932E-1,-2.6254964E-1,6.061865E-1,-1.508935E-1,9.288932E-2,1.885051E-1,5.444779E-1,6.2002313E-1,-3.4983313E-1,-1.7191274E-1,3.729354E-1,-1.8242489E-1,-6.6431385E-1,3.620447E-2,2.7353004E-1,-6.169267E-1,8.775063E-2,1.9945608E-1,-2.4009204E-1,1.2203204E-1,3.9214215E-1,5.456877E-1,3.208848E-1,3.6345947E-1,-2.5691697E-1,-1.6694109E-1,8.7030756E-1,7.817732E-2,5.444786E-1],"categories":[],"categories_nodes":[],"categories_segments":[],"categories_sizes":[],"default_left":[0,0,0,0,0,0,0,0,0,0,0,0,0,0,0,0,0,0,0,0,0,0,0,0,0,0,0,0,0,0,0,0,0,0,0,0,0,0,0,0,0,0,0,0,0,0,0,0,0,0,0,0,0,0,0,0,0,0,0,0,0,0,0,0,0,0,0,0,0,0,0,0,0,0,0,0,0,0,0,0,0,0,0,0,0,0,0,0,0,0,0,0,0,0,0,0,0,0,0,0,0,0,0,0,0,0,0,0,0,0,0,0,0,0,0,0,0,0,0,0,0,0,0],"id":2,"left_children":[1,3,5,7,9,11,13,15,17,19,21,23,25,27,29,31,33,35,37,39,41,43,45,47,49,51,53,55,57,59,61,63,65,67,69,71,73,75,77,79,81,83,85,87,89,91,93,95,97,99,101,103,105,-1,-1,107,109,111,113,115,117,119,121,-1,-1,-1,-1,-1,-1,-1,-1,-1,-1,-1,-1,-1,-1,-1,-1,-1,-1,-1,-1,-1,-1,-1,-1,-1,-1,-1,-1,-1,-1,-1,-1,-1,-1,-1,-1,-1,-1,-1,-1,-1,-1,-1,-1,-1,-1,-1,-1,-1,-1,-1,-1,-1,-1,-1,-1,-1,-1,-1,-1],"loss_changes":[9.4843375E4,1.807036E4,1.6560582E4,2.1745469E3,3.2649375E3,2.6464463E3,4.9025977E3,1.9106914E3,1.6391992E3,1.9393462E3,1.7965049E3,2.333503E3,1.2158701E3,2.1967734E3,2.3620156E3,1.951793E3,1.4108468E3,1.8423223E3,1.2348193E3,1.3593298E3,1.7591279E3,1.927834E3,1.3880715E3,1.8549875E3,2.0400508E3,1.2941399E3,1.3202332E2,2.7594482E3,2.6549023E3,2.261875E3,2.2063232E3,1.6234417E3,2.9855156E3,8.450342E2,9.4450635E2,8.236035E2,1.0962202E3,6.754678E2,1.3074893E3,9.1911035E2,8.427402E2,3.74404E3,2.8416028E3,1.0149293E3,1.7215117E3,1.7355972E3,8.232095E2,2.1489653E3,1.7172969E3,2.056059E3,9.705878E2,3.0067786E2,1.099844E3,0E0,0E0,7.956206E2,1.4383545E3,2.3693901E3,2.0708086E3,2.19983E3,1.6618762E3,9.534385E2,7.864424E2,0E0,0E0,0E0,0E0,0E0,0E0,0E0,0E0,0E0,0E0,0E0,0E0,0E0,0E0,0E0,0E0,0E0,0E0,0E0,0E0,0E0,0E0,0E0,0E0,0E0,0E0,0E0,0E0,0E0,0E0,0E0,0E0,0E0,0E0,0E0,0E0,0E0,0E0,0E0,0E0,0E0,0E0,0E0,0E0,0E0,0E0,0E0,0E0,0E0,0E0,0E0,0E0,0E0,0E0,0E0,0E0,0E0,0E0,0E0,0E0],"parents":[2147483647,0,0,1,1,2,2,3,3,4,4,5,5,6,6,7,7,8,8,9,9,10,10,11,11,12,12,13,13,14,14,15,15,16,16,17,17,18,18,19,19,20,20,21,21,22,22,23,23,24,24,25,25,26,26,27,27,28,28,29,29,30,30,31,31,32,32,33,33,34,34,35,35,36,36,37,37,38,38,39,39,40,40,41,41,42,42,43,43,44,44,45,45,46,46,47,47,48,48,49,49,50,50,51,51,52,52,55,55,56,56,57,57,58,58,59,59,60,60,61,61,62,62],"right_children":[2,4,6,8,10,12,14,16,18,20,22,24,26,28,30,32,34,36,38,40,42,44,46,48,50,52,54,56,58,60,62,64,66,68,70,72,74,76,78,80,82,84,86,88,90,92,94,96,98,100,102,104,106,-1,-1,108,110,112,114,116,118,120,122,-1,-1,-1,-1,-1,-1,-1,-1,-1,-1,-1,-1,-1,-1,-1,-1,-1,-1,-1,-1,-1,-1,-1,-1,-1,-1,-1,-1,-1,-1,-1,-1,-1,-1,-1,-1,-1,-1,-1,-1,-1,-1,-1,-1,-1,-1,-1,-1,-1,-1,-1,-1,-1,-1,-1,-1,-1,-1,-1,-1],"split_conditions":[1.1057427E-2,-1.0770164E0,7.8825295E-1,1.1576633E0,1.2184019E0,1.87286E0,1.3544954E0,8.135097E-1,-7.1081406E-1,-1.9838995E0,-9.7184606E-2,6.7762274E-1,1.6608199E0,-9.474109E-1,1.2998862E0,-1.4153053E0,-1.3825405E0,-7.290007E-1,-1.6679834E0,4.6514747E-1,5.4723257E-1,-1.0998001E0,1.2871264E0,-1.585052E0,1.5102923E0,-1.3053273E0,7.991871E-1,4.0797147E-1,-2.9981187E-1,1.1317616E0,-1.4765188E-1,1.5033139E0,-1.7583515E-1,-1.2064501E0,-1.4736711E0,-8.7081516E-1,-5.479631E-1,-1.8329107E0,1.03110276E-1,1.1603661E-1,1.0716718E-1,-6.484485E-1,-1.2811906E0,-1.3915683E-1,-1.3378673E0,6.172401E-1,-6.551102E-1,6.8166614E-1,-1.3539025E0,7.8763443E-1,-2.024941E0,-1.1007118E0,1.1613561E0,7.0563847E-1,1.5973078E-1,2.0474474E-1,1.1102339E0,1.2055508E0,-8.621369E-1,-4.8125854E-1,-4.0361694E-1,-1.8274992E0,4.4825554E-2,-2.1137686E-1,4.575506E-1,-4.8736864E-1,-2.5939578E-1,-5.8779288E-2,-8.820392E-1,-3.0711648E-1,3.9223604E-2,-5.577879E-1,-1.4288896E0,-1.1222396E-1,-7.221326E-1,-4.4345984E-1,-1.1898897E0,-1.9149065E-1,-4.938987E-1,-2.3151839E-1,-7.3592484E-1,-3.153708E-1,5.250337E-1,-2.5418472E-1,-6.903097E-2,-2.8340116E-1,1.0741815E-3,5.3552324E-1,-1.8150191E-1,2.9626068E-1,-4.7462127E-1,-1.6989012E-1,2.6350588E-1,-1.0053523E0,-2.5976932E-1,-2.6254964E-1,6.061865E-1,-1.508935E-1,9.288932E-2,1.885051E-1,5.444779E-1,6.2002313E-1,-3.4983313E-1,-1.7191274E-1,3.729354E-1,-1.8242489E-1,-6.6431385E-1,3.620447E-2,2.7353004E-1,-6.169267E-1,8.775063E-2,1.9945608E-1,-2.4009204E-1,1.2203204E-1,3.9214215E-1,5.456877E-1,3.208848E-1,3.6345947E-1,-2.5691697E-1,-1.6694109E-1,8.7030756E-1,7.817732E-2,5.444786E-1],"split_indices":[56,56,56,44,33,0,56,14,15,12,15,30,1,26,49,6,10,41,9,24,36,6,51,32,6,20,8,10,32,33,27,25,2,16,45,46,13,9,28,41,1,56,10,32,22,51,56,56,41,47,13,5,7,0,0,49,56,23,20,7,35,27,14,0,0,0,0,0,0,0,0,0,0,0,0,0,0,0,0,0,0,0,0,0,0,0,0,0,0,0,0,0,0,0,0,0,0,0,0,0,0,0,0,0,0,0,0,0,0,0,0,0,0,0,0,0,0,0,0,0,0,0,0],"split_type":[0,0,0,0,0,0,0,0,0,0,0,0,0,0,0,0,0,0,0,0,0,0,0,0,0,0,0,0,0,0,0,0,0,0,0,0,0,0,0,0,0,0,0,0,0,0,0,0,0,0,0,0,0,0,0,0,0,0,0,0,0,0,0,0,0,0,0,0,0,0,0,0,0,0,0,0,0,0,0,0,0,0,0,0,0,0,0,0,0,0,0,0,0,0,0,0,0,0,0,0,0,0,0,0,0,0,0,0,0,0,0,0,0,0,0,0,0,0,0,0,0,0,0],"sum_hessian":[7.558E3,3.81E3,3.748E3,1.026E3,2.784E3,2.108E3,1.64E3,8.11E2,2.15E2,2.418E3,3.66E2,2.044E3,6.4E1,9.91E2,6.49E2,7E2,1.11E2,4.9E1,1.66E2,4.9E1,2.369E3,1.62E2,2.04E2,1.655E3,3.89E2,5.9E1,5E0,1.71E2,8.2E2,5.56E2,9.3E1,1.12E2,5.88E2,1.3E1,9.8E1,1.7E1,3.2E1,1.5E1,1.51E2,3.9E1,1E1,1.43E3,9.39E2,1.9E1,1.43E2,1.88E2,1.6E1,7.4E1,1.581E3,3.66E2,2.3E1,1E1,4.9E1,2E0,3E0,1.41E2,3E1,3.58E2,4.62E2,5.14E2,4.2E1,5.7E1,3.6E1,1.03E2,9E0,3.19E2,2.69E2,5E0,8E0,2.6E1,7.2E1,6E0,1.1E1,1.2E1,2E1,8E0,7E0,6.3E1,8.8E1,1.7E1,2.2E1,5E0,5E0,3.67E2,1.063E3,9.7E1,8.42E2,7E0,1.2E1,7E0,1.36E2,1.62E2,2.6E1,6E0,1E1,6.7E1,7E0,7.5E1,1.506E3,3.2E2,4.6E1,2E0,2.1E1,3E0,7E0,2.8E1,2.1E1,7E1,7.1E1,1.9E1,1.1E1,3.25E2,3.3E1,8.9E1,3.73E2,1.63E2,3.51E2,1.8E1,2.4E1,2E0,5.5E1,1.8E1,1.8E1],"tree_param":{"num_deleted":"0","num_feature":"58","num_nodes":"123","size_leaf_vector":"1"}},{"base_weights":[-6.3800745E-2,-3.361852E0,3.3816369E0,-7.089816E0,-2.197853E0,1.5932648E0,5.673246E0,-7.771455E0,-1.2052261E0,-1.774823E0,-4.8235345E0,3.3808403E0,1.113948E0,4.7498493E0,8.155622E0,-6.6957183E0,-1.1110411E1,-5.468446E0,2.7472553E0,-3.1737669E0,-1.0254631E0,-7.176696E0,-2.9136567E0,4.575519E0,8.5923386E-1,-4.4815E0,1.4211102E0,6.3541894E0,3.5437417E0,-5.889521E-1,8.411834E0,-8.5106325E0,-4.69576E0,-1.1552313E1,8.434258E0,-7.4097543E0,4.921651E0,-5.385838E0,6.972209E0,-1.1323214E0,-4.667824E0,-3.2346418E0,-2.4206078E-1,-4.3620825E0,-9.913301E0,4.2945633E0,-3.9032912E0,5.539164E0,3.8707575E-1,-3.9621964E-1,7.426653E0,-5.877118E0,9.860416E0,1.5672754E0,-6.647852E0,4.506749E0,8.666039E0,1.6362177E0,5.0775642E0,7.5250077E0,1.2852392E1,-5.057381E-1,-2.1428743E-1,-1.2234167E-2,-3.0217558E-1,-6.3129205E-1,-2.7155465E-1,5.371741E-1,1.6568078E-1,-4.721082E-1,1.7602418E-1,4.574038E-1,9.9408165E-2,-3.7134108E-1,-3.3034086E-3,-8.810667E-2,5.0935286E-1,-3.5972733E-2,-6.8151975E-1,-6.135674E-3,-2.8238198E-1,-1.8935759E-2,-2.2055092E-1,-8.843722E-1,-8.52996E-3,4.421948E-1,-2.6113507E-1,-5.540174E-1,4.3305436E-1,3.7187263E-1,-5.825109E-1,-1.5065406E-1,-5.695092E-1,2.4883452E-1,7.976031E-1,5.2635175E-1,-3.9518166E-2,-1.21234596E-1,1.6698615E-1,-9.008781E-2,5.394862E-1,-6.435792E-2,-4.330515E-1,6.291971E-1,5.632797E-2,9.695643E-2,-8.6731255E-2,2.7582598E-1,-5.894713E-1,1.3689886E-1,3.3906096E-1,3.659482E-1,7.1805894E-1,-1.2588668E0,9.481492E-2,2.7862135E-1,-6.8205637E-1,4.4302627E-1,2.0891094E-1,7.909473E-1,2.5179425E-1],"categories":[],"categories_nodes":[],"categories_segments":[],"categories_sizes":[],"default_left":[0,0,0,0,0,0,0,0,0,0,0,0,0,0,0,0,0,0,0,0,0,0,0,0,0,0,0,0,0,0,0,0,0,0,0,0,0,0,0,0,0,0,0,0,0,0,0,0,0,0,0,0,0,0,0,0,0,0,0,0,0,0,0,0,0,0,0,0,0,0,0,0,0,0,0,0,0,0,0,0,0,0,0,0,0,0,0,0,0,0,0,0,0,0,0,0,0,0,0,0,0,0,0,0,0,0,0,0,0,0,0,0,0,0,0,0,0,0,0,0,0],"id":3,"left_children":[1,3,5,7,9,11,13,15,17,19,21,23,25,27,29,31,33,35,37,39,41,43,45,47,49,51,53,55,57,-1,59,61,63,65,67,69,71,73,75,77,79,81,83,85,87,89,91,93,95,97,99,101,103,105,107,109,111,113,115,117,119,-1,-1,-1,-1,-1,-1,-1,-1,-1,-1,-1,-1,-1,-1,-1,-1,-1,-1,-1,-1,-1,-1,-1,-1,-1,-1,-1,-1,-1,-1,-1,-1,-1,-1,-1,-1,-1,-1,-1,-1,-1,-1,-1,-1,-1,-1,-1,-1,-1,-1,-1,-1,-1,-1,-1,-1,-1,-1,-1,-1],"loss_changes":[8.63151E4,1.6825418E4,1.5215957E4,3.6929375E3,3.278128E3,1.7852637E3,3.692996E3,2.8960547E3,1.6495018E3,2.6699404E3,1.8217324E3,1.324585E3,2.8388037E3,2.278205E3,2.3463848E3,2.2395195E3,1.8248027E3,9.844763E2,1.7900105E3,2.7061963E3,2.8756E3,1.3663125E3,1.6432017E3,1.2046714E3,1.1819905E3,1.7793131E3,1.853824E3,2.1348848E3,1.9841641E3,0E0,1.6163164E3,2.1795938E3,1.8042046E3,1.2194043E3,2.3523804E1,9.218296E2,8.099747E1,1.9494543E2,9.7265674E2,1.9355281E3,2.2838857E3,1.4597749E3,1.5278989E3,1.0917972E3,2.0902676E3,1.489803E3,1.3053269E3,1.3438579E3,6.888537E2,9.250668E2,7.332638E2,9.9831714E2,1.7611859E2,1.8892981E3,1.8162694E3,1.1279927E3,1.621043E3,2.1747185E3,3.5682324E3,1.594416E3,1.5666924E3,0E0,0E0,0E0,0E0,0E0,0E0,0E0,0E0,0E0,0E0,0E0,0E0,0E0,0E0,0E0,0E0,0E0,0E0,0E0,0E0,0E0,0E0,0E0,0E0,0E0,0E0,0E0,0E0,0E0,0E0,0E0,0E0,0E0,0E0,0E0,0E0,0E0,0E0,0E0,0E0,0E0,0E0,0E0,0E0,0E0,0E0,0E0,0E0,0E0,0E0,0E0,0E0,0E0,0E0,0E0,0E0,0E0,0E0,0E0,0E0],"parents":[2147483647,0,0,1,1,2,2,3,3,4,4,5,5,6,6,7,7,8,8,9,9,10,10,11,11,12,12,13,13,14,14,15,15,16,16,17,17,18,18,19,19,20,20,21,21,22,22,23,23,24,24,25,25,26,26,27,27,28,28,30,30,31,31,32,32,33,33,34,34,35,35,36,36,37,37,38,38,39,39,40,40,41,41,42,42,43,43,44,44,45,45,46,46,47,47,48,48,49,49,50,50,51,51,52,52,53,53,54,54,55,55,56,56,57,57,58,58,59,59,60,60],"right_children":[2,4,6,8,10,12,14,16,18,20,22,24,26,28,30,32,34,36,38,40,42,44,46,48,50,52,54,56,58,-1,60,62,64,66,68,70,72,74,76,78,80,82,84,86,88,90,92,94,96,98,100,102,104,106,108,110,112,114,116,118,120,-1,-1,-1,-1,-1,-1,-1,-1,-1,-1,-1,-1,-1,-1,-1,-1,-1,-1,-1,-1,-1,-1,-1,-1,-1,-1,-1,-1,-1,-1,-1,-1,-1,-1,-1,-1,-1,-1,-1,-1,-1,-1,-1,-1,-1,-1,-1,-1,-1,-1,-1,-1,-1,-1,-1,-1,-1,-1,-1,-1],"split_conditions":[1.1057427E-2,-1.1547359E0,7.9935575E-1,1.0027593E0,1.1645454E0,-8.388769E-1,1.5654485E0,8.578701E-1,-4.6566656E-1,-6.572222E-1,-9.7184606E-2,4.6514747E-1,-1.455158E0,-1.8369748E-1,-2.2121594E0,-1.2272685E0,1.0997229E0,3.7923917E-2,-8.445812E-1,-3.4106314E-1,-7.183031E-1,-3.3373412E-1,-8.526892E-1,9.541798E-1,1.6597185E0,1.5991279E0,2.1929321E0,-7.780923E-2,-2.1024325E-1,-5.889521E-1,1.2998862E0,-1.8257208E-2,-8.91813E-1,9.280426E-1,-1.8973644E-1,3.6148262E-1,-1.6704273E0,-1.3523656E0,1.086555E0,1.6808287E0,-8.939096E-1,-3.832352E-1,-2.7321906E0,-1.0103996E0,1.7845017E0,8.470453E-1,1.3745028E0,1.67715E0,-7.9885475E-2,3.3435374E-1,-6.211219E-1,-1.9668347E0,1.7294551E-1,1.3162519E0,-1.074461E-1,-7.892853E-2,1.6001779E0,-1.9060876E0,1.8261911E0,1.6701403E-1,-1.6505861E-1,-5.057381E-1,-2.1428743E-1,-1.2234167E-2,-3.0217558E-1,-6.3129205E-1,-2.7155465E-1,5.371741E-1,1.6568078E-1,-4.721082E-1,1.7602418E-1,4.574038E-1,9.9408165E-2,-3.7134108E-1,-3.3034086E-3,-8.810667E-2,5.0935286E-1,-3.5972733E-2,-6.8151975E-1,-6.135674E-3,-2.8238198E-1,-1.8935759E-2,-2.2055092E-1,-8.843722E-1,-8.52996E-3,4.421948E-1,-2.6113507E-1,-5.540174E-1,4.3305436E-1,3.7187263E-1,-5.825109E-1,-1.5065406E-1,-5.695092E-1,2.4883452E-1,7.976031E-1,5.2635175E-1,-3.9518166E-2,-1.21234596E-1,1.6698615E-1,-9.008781E-2,5.394862E-1,-6.435792E-2,-4.330515E-1,6.291971E-1,5.632797E-2,9.695643E-2,-8.6731255E-2,2.7582598E-1,-5.894713E-1,1.3689886E-1,3.3906096E-1,3.659482E-1,7.1805894E-1,-1.2588668E0,9.481492E-2,2.7862135E-1,-6.8205637E-1,4.4302627E-1,2.0891094E-1,7.909473E-1,2.5179425E-1],"split_indices":[56,56,56,14,33,29,56,29,0,17,15,24,14,29,14,17,8,41,24,36,49,54,21,45,49,16,6,7,34,0,49,14,11,52,11,42,8,56,36,23,46,23,51,56,36,28,51,11,47,54,32,14,20,51,50,54,41,4,52,33,27,0,0,0,0,0,0,0,0,0,0,0,0,0,0,0,0,0,0,0,0,0,0,0,0,0,0,0,0,0,0,0,0,0,0,0,0,0,0,0,0,0,0,0,0,0,0,0,0,0,0,0,0,0,0,0,0,0,0,0,0],"split_type":[0,0,0,0,0,0,0,0,0,0,0,0,0,0,0,0,0,0,0,0,0,0,0,0,0,0,0,0,0,0,0,0,0,0,0,0,0,0,0,0,0,0,0,0,0,0,0,0,0,0,0,0,0,0,0,0,0,0,0,0,0,0,0,0,0,0,0,0,0,0,0,0,0,0,0,0,0,0,0,0,0,0,0,0,0,0,0,0,0,0,0,0,0,0,0,0,0,0,0,0,0,0,0,0,0,0,0,0,0,0,0,0,0,0,0,0,0,0,0,0,0],"sum_hessian":[7.594E3,3.88E3,3.714E3,9.22E2,2.958E3,2.087E3,1.627E3,8.26E2,9.6E1,2.549E3,4.09E2,4.4E2,1.647E3,1.188E3,4.39E2,6.27E2,1.99E2,4.6E1,5E1,8.88E2,1.661E3,1.82E2,2.27E2,2.98E2,1.42E2,8.5E1,1.562E3,5.08E2,6.8E2,5E0,4.34E2,3.27E2,3E2,1.95E2,4E0,3.9E1,7E0,1.7E1,3.3E1,3.76E2,5.12E2,4.34E2,1.227E3,9.1E1,9.1E1,2.7E1,2E2,2.42E2,5.6E1,1.2E2,2.2E1,7.8E1,7E0,1.535E3,2.7E1,2.84E2,2.24E2,3.04E2,3.76E2,3.64E2,7E1,2.36E2,9.1E1,7E1,2.3E2,1.65E2,3E1,2E0,2E0,3.3E1,6E0,2E0,5E0,1.2E1,5E0,9E0,2.4E1,3.65E2,1.1E1,9.1E1,4.21E2,1.27E2,3.07E2,4E0,1.223E3,5E0,8.6E1,8.6E1,5E0,2.3E1,4E0,1.8E2,2E1,2.31E2,1.1E1,5E0,5.1E1,7.8E1,4.2E1,6E0,1.6E1,3E1,4.8E1,5E0,2E0,1.38E3,1.55E2,8E0,1.9E1,1.61E2,1.23E2,1.83E2,4.1E1,2E0,3.02E2,3.67E2,9E0,2.59E2,1.05E2,5E1,2E1],"tree_param":{"num_deleted":"0","num_feature":"58","num_nodes":"121","size_leaf_vector":"1"}},{"base_weights":[8.487615E-2,-3.1771145E0,3.3926783E0,-5.715287E0,-1.520889E0,1.7707856E0,5.762958E0,-6.695989E0,-2.8422177E0,-1.3603361E0,-7.240977E0,2.0017114E0,-3.2458289E0,4.669597E0,8.381508E0,-7.2654853E0,-3.1903367E0,-5.4234443E0,-6.980816E-1,-5.4715753E0,-1.1927545E0,-1.1398365E0,-1.178517E1,-1.5511381E1,2.0499232E0,-4.6436E0,4.8912635E0,4.8168597E0,-5.4520545E0,6.7969623E0,1.1051472E1,-1.2878864E0,-7.659497E0,-7.7414746E0,-1.2113637E0,-6.291687E0,5.010754E0,8.5241807E-1,-5.365664E0,5.8729094E-1,-6.217434E0,1.4758166E0,-1.4367057E0,8.931977E0,-4.2926936E0,-2.0317095E1,-8.621866E0,-9.953548E-1,-2.2399847E-1,1.0551126E0,2.918259E0,-6.1002293E0,3.8931334E0,8.534795E0,1.5139322E0,3.796867E0,6.1827035E0,2.1624494E-1,-1.4935262E1,3.7244315E0,8.678675E0,5.3320557E-1,1.1794489E1,5.704505E-1,-1.5725292E-1,-3.9154813E-1,2.890781E-1,-8.238997E-1,-2.5043797E-1,3.679236E-1,-1.3062283E-1,-3.4154367E-1,3.311641E-1,5.1636887E-1,-8.906045E-2,1.2713163E-1,-2.2283879E-1,-5.932423E-1,-1.8530255E-2,-4.597635E-1,-9.544224E-2,-8.010278E-1,9.292761E-2,2.0743342E-1,-7.724338E-2,-4.354201E-1,6.66172E-1,4.0085006E-1,-3.3291385E-1,-1.1042995E0,-1.541483E-1,3.2812336E-1,-5.021147E-1,1.13762155E-1,-1.7983576E-2,1.8728706E-1,-2.3358082E-2,-1.9429307E-1,-6.583019E-1,-2.5710008E-1,5.0914216E-1,9.564376E-2,4.6598178E-1,-1.1540692E-1,1.4678432E-1,2.1391134E-1,-2.0252366E-1,3.549507E-1,-1.0583993E-2,-1.3933109E-1,2.1885048E-1,-2.684148E-1,-1.1356398E0,-9.29243E-2,3.8090605E-1,-6.038165E-1,4.6157804E-1,-2.6940084E-1,2.7661833E-1,4.695324E-1,8.256155E-1],"categories":[],"categories_nodes":[],"categories_segments":[],"categories_sizes":[],"default_left":[0,0,0,0,0,0,0,0,0,0,0,0,0,0,0,0,0,0,0,0,0,0,0,0,0,0,0,0,0,0,0,0,0,0,0,0,0,0,0,0,0,0,0,0,0,0,0,0,0,0,0,0,0,0,0,0,0,0,0,0,0,0,0,0,0,0,0,0,0,0,0,0,0,0,0,0,0,0,0,0,0,0,0,0,0,0,0,0,0,0,0,0,0,0,0,0,0,0,0,0,0,0,0,0,0,0,0,0,0,0,0,0,0,0,0,0,0,0,0,0,0],"id":4,"left_children":[1,3,5,7,9,11,13,15,17,19,21,23,25,27,29,31,33,35,37,39,41,43,45,47,49,51,53,55,57,59,61,63,65,67,69,71,73,75,77,-1,79,81,83,85,87,89,91,-1,-1,93,95,97,99,101,103,105,107,109,111,113,115,117,119,-1,-1,-1,-1,-1,-1,-1,-1,-1,-1,-1,-1,-1,-1,-1,-1,-1,-1,-1,-1,-1,-1,-1,-1,-1,-1,-1,-1,-1,-1,-1,-1,-1,-1,-1,-1,-1,-1,-1,-1,-1,-1,-1,-1,-1,-1,-1,-1,-1,-1,-1,-1,-1,-1,-1,-1,-1,-1],"loss_changes":[8.1971766E4,1.6070793E4,1.4490645E4,4.235586E3,2.1171113E3,2.6026187E3,4.3470117E3,2.222832E3,2.1325315E3,1.5464077E3,1.7332268E3,1.8412129E3,1.1487186E3,1.6405195E3,1.8286895E3,2.2676484E3,1.4226686E3,1.6169243E3,1.5388358E3,1.203102E3,1.4128403E3,9.27482E2,7.9643506E2,2.0176233E2,1.8437881E3,1.0807118E3,1.716601E2,1.4644121E3,8.632882E2,1.6154385E3,1.291043E3,1.4742815E3,2.135621E3,1.0634373E3,1.3640226E3,1.1733423E3,5.239396E2,1.4471198E3,1.7161837E3,0E0,1.0730208E3,1.2485352E3,1.2062007E3,6.5829535E2,6.9401086E2,2.0627783E2,6.6981323E2,0E0,0E0,1.7235872E3,3.1981191E3,1.0910186E3,7.91129E2,1.8552704E1,5.5682373E1,2.3366484E3,2.667457E3,1.496335E2,3.245155E2,2.4053538E3,2.1311094E3,3.8502225E2,1.6027793E3,0E0,0E0,0E0,0E0,0E0,0E0,0E0,0E0,0E0,0E0,0E0,0E0,0E0,0E0,0E0,0E0,0E0,0E0,0E0,0E0,0E0,0E0,0E0,0E0,0E0,0E0,0E0,0E0,0E0,0E0,0E0,0E0,0E0,0E0,0E0,0E0,0E0,0E0,0E0,0E0,0E0,0E0,0E0,0E0,0E0,0E0,0E0,0E0,0E0,0E0,0E0,0E0,0E0,0E0,0E0,0E0,0E0,0E0],"parents":[2147483647,0,0,1,1,2,2,3,3,4,4,5,5,6,6,7,7,8,8,9,9,10,10,11,11,12,12,13,13,14,14,15,15,16,16,17,17,18,18,19,19,20,20,21,21,22,22,23,23,24,24,25,25,26,26,27,27,28,28,29,29,30,30,31,31,32,32,33,33,34,34,35,35,36,36,37,37,38,38,40,40,41,41,42,42,43,43,44,44,45,45,46,46,49,49,50,50,51,51,52,52,53,53,54,54,55,55,56,56,57,57,58,58,59,59,60,60,61,61,62,62],"right_children":[2,4,6,8,10,12,14,16,18,20,22,24,26,28,30,32,34,36,38,40,42,44,46,48,50,52,54,56,58,60,62,64,66,68,70,72,74,76,78,-1,80,82,84,86,88,90,92,-1,-1,94,96,98,100,102,104,106,108,110,112,114,116,118,120,-1,-1,-1,-1,-1,-1,-1,-1,-1,-1,-1,-1,-1,-1,-1,-1,-1,-1,-1,-1,-1,-1,-1,-1,-1,-1,-1,-1,-1,-1,-1,-1,-1,-1,-1,-1,-1,-1,-1,-1,-1,-1,-1,-1,-1,-1,-1,-1,-1,-1,-1,-1,-1,-1,-1,-1,-1,-1],"split_conditions":[1.1057427E-2,-8.4385765E-1,8.5486966E-1,-4.830415E-1,2.0002341E0,1.7529362E0,1.5654485E0,8.793695E-1,-2.9231244E-1,-1.889289E0,1.0613156E-1,-2.3196595E0,7.9716074E-1,1.8319066E0,8.4275234E-1,-1.7856789E0,-6.5894103E-1,1.1832947E0,1.3450545E0,-2.070577E0,-1.2588638E0,-3.1269595E-1,-2.0012696E-1,3.5433826E-1,-1.7167687E-1,1.1217738E0,2.2663021E-2,3.6119354E-1,2.684294E-1,1.2273483E-1,-2.0360615E0,-1.3319886E0,1.6312572E0,-7.9825366E-1,-9.1352516E-1,1.5189145E0,2.7820843E-1,1.047463E0,1.7314429E0,5.8729094E-1,4.3561065E-1,-1.7882713E0,-1.9831041E0,-1.6583481E0,-1.1286936E0,6.975808E-1,-2.4861743E0,-9.953548E-1,-2.2399847E-1,7.298865E-2,9.0131134E-1,1.5481919E0,5.1923776E-1,1.827889E0,-1.2466222E0,9.147201E-1,1.0370067E0,-7.769923E-2,-6.6114867E-1,-3.5686716E-1,-1.547814E0,-3.122197E-1,3.2867408E-1,5.704505E-1,-1.5725292E-1,-3.9154813E-1,2.890781E-1,-8.238997E-1,-2.5043797E-1,3.679236E-1,-1.3062283E-1,-3.4154367E-1,3.311641E-1,5.1636887E-1,-8.906045E-2,1.2713163E-1,-2.2283879E-1,-5.932423E-1,-1.8530255E-2,-4.597635E-1,-9.544224E-2,-8.010278E-1,9.292761E-2,2.0743342E-1,-7.724338E-2,-4.354201E-1,6.66172E-1,4.0085006E-1,-3.3291385E-1,-1.1042995E0,-1.541483E-1,3.2812336E-1,-5.021147E-1,1.13762155E-1,-1.7983576E-2,1.8728706E-1,-2.3358082E-2,-1.9429307E-1,-6.583019E-1,-2.5710008E-1,5.0914216E-1,9.564376E-2,4.6598178E-1,-1.1540692E-1,1.4678432E-1,2.1391134E-1,-2.0252366E-1,3.549507E-1,-1.0583993E-2,-1.3933109E-1,2.1885048E-1,-2.684148E-1,-1.1356398E0,-9.29243E-2,3.8090605E-1,-6.038165E-1,4.6157804E-1,-2.6940084E-1,2.7661833E-1,4.695324E-1,8.256155E-1],"split_indices":[56,56,56,17,29,0,56,51,42,10,33,41,57,33,43,12,34,0,29,5,29,5,10,1,30,43,19,49,28,24,19,34,14,7,7,49,18,33,29,0,34,39,24,1,1,5,49,0,0,9,12,19,40,0,4,10,22,23,3,4,12,34,12,0,0,0,0,0,0,0,0,0,0,0,0,0,0,0,0,0,0,0,0,0,0,0,0,0,0,0,0,0,0,0,0,0,0,0,0,0,0,0,0,0,0,0,0,0,0,0,0,0,0,0,0,0,0,0,0,0,0],"split_type":[0,0,0,0,0,0,0,0,0,0,0,0,0,0,0,0,0,0,0,0,0,0,0,0,0,0,0,0,0,0,0,0,0,0,0,0,0,0,0,0,0,0,0,0,0,0,0,0,0,0,0,0,0,0,0,0,0,0,0,0,0,0,0,0,0,0,0,0,0,0,0,0,0,0,0,0,0,0,0,0,0,0,0,0,0,0,0,0,0,0,0,0,0,0,0,0,0,0,0,0,0,0,0,0,0,0,0,0,0,0,0,0,0,0,0,0,0,0,0,0,0],"sum_hessian":[7.595E3,3.824E3,3.771E3,1.509E3,2.315E3,2.24E3,1.531E3,1.124E3,3.85E2,2.253E3,6.2E1,2.142E3,9.8E1,1.082E3,4.49E2,9.66E2,1.58E2,1.74E2,2.11E2,8.7E1,2.166E3,2.7E1,3.5E1,5E0,2.137E3,8.4E1,1.4E1,1.067E3,1.5E1,2.84E2,1.65E2,6E1,9.06E2,4.7E1,1.11E2,1.61E2,1.3E1,1.59E2,5.2E1,3E0,8.4E1,1.81E2,1.985E3,6E0,2.1E1,8E0,2.7E1,3E0,2E0,9.97E2,1.14E3,7.2E1,1.2E1,6E0,8E0,6.13E2,4.54E2,1E1,5E0,1.09E2,1.75E2,1.1E1,1.54E2,7E0,5.3E1,8.95E2,1.1E1,1E1,3.7E1,1.5E1,9.6E1,1.55E2,6E0,7E0,6E0,1.21E2,3.8E1,2.2E1,3E1,4.9E1,3.5E1,3E0,1.78E2,3.7E1,1.948E3,1E0,5E0,3E0,1.8E1,7E0,1E0,2E0,2.5E1,5.35E2,4.62E2,9.16E2,2.24E2,5.6E1,1.6E1,5E0,7E0,1E0,5E0,2E0,6E0,5.78E2,3.5E1,3.97E2,5.7E1,6E0,4E0,3E0,2E0,4.5E1,6.4E1,4E0,1.71E2,5E0,6E0,1.04E2,5E1],"tree_param":{"num_deleted":"0","num_feature":"58","num_nodes":"121","size_leaf_vector":"1"}},{"base_weights":[-3.6424402E-2,-2.9521945E0,2.9442189E0,-5.528052E0,-1.6540889E0,1.1396533E0,5.26119E0,-5.799936E0,9.424395E-1,-1.902861E0,1.6767462E0,3.0349112E0,5.918775E-1,4.268288E0,8.350579E0,-4.920584E0,-7.929877E0,-1.8149416E0,1.0514737E1,-1.7424994E0,-7.9969544E0,-6.7030597E0,2.8329422E0,2.7571228E0,1.8940895E1,-5.4036107E0,7.442847E-1,5.737283E0,3.1071002E0,1.1687708E1,7.096291E0,-5.347698E0,-4.7210123E-2,-9.859574E0,-5.0535855E0,7.189557E0,-4.8535213E0,-4.5022598E-1,1.8411171E1,-2.8617444E0,-9.7266865E-1,-1.6767712E1,-4.227168E0,-1.1133615E1,4.381503E0,3.6760743E0,-1.0013018E1,8.774257E0,2.3259423E0,2.36321E-1,1.1445658E0,-1.0382799E0,-3.181623E0,1.4766212E0,-5.2305007E-1,3.953237E0,7.7257E0,3.3317535E0,-9.0558E0,1.2508962E1,-4.3584304E0,7.7316256E0,-1.1101855E0,-1.9234163E-1,-3.3695433E-1,8.606171E-1,-1.0853682E-1,-1.3803517E0,-4.6089935E-1,-4.5372072E-1,-9.2192866E-2,6.414313E-1,-2.9429847E-1,-3.9693817E-1,4.7505647E-2,2.0130864E-1,-3.134341E-1,3.7893674E-1,1.06142E0,-1.8986285E-1,-1.5039581E-2,5.9526604E-2,-7.741176E-2,-2.3326729E-1,-1.1215059E0,-3.5772613E-1,2.6026532E-1,-1.017556E0,-2.5468695E-1,4.413956E-1,-5.8014072E-2,2.827304E-1,-5.8697015E-2,-7.523282E-1,6.494709E-2,-2.374107E-1,4.935286E-1,9.7775154E-2,5.2058375E-1,-5.4248154E-2,-6.916769E-1,1.0295967E-1,-9.4485E-2,-5.8398772E-2,2.3519658E-1,-1.254272E-1,2.4197792E-1,3.1448683E-1,6.674298E-1,-6.061205E-1,1.7539452E-1,-6.8856347E-1,6.216016E-2,1.260312E-1,7.091438E-1,-4.5754227E-1,1.6274456E-2,9.535089E-2,4.304165E-1,-5.0497454E-1,7.242604E-2],"categories":[],"categories_nodes":[],"categories_segments":[],"categories_sizes":[],"default_left":[0,0,0,0,0,0,0,0,0,0,0,0,0,0,0,0,0,0,0,0,0,0,0,0,0,0,0,0,0,0,0,0,0,0,0,0,0,0,0,0,0,0,0,0,0,0,0,0,0,0,0,0,0,0,0,0,0,0,0,0,0,0,0,0,0,0,0,0,0,0,0,0,0,0,0,0,0,0,0,0,0,0,0,0,0,0,0,0,0,0,0,0,0,0,0,0,0,0,0,0,0,0,0,0,0,0,0,0,0,0,0,0,0,0,0,0,0,0,0,0,0],"id":5,"left_children":[1,3,5,7,9,11,13,15,17,19,21,23,25,27,29,31,33,35,37,39,41,43,45,47,49,51,53,55,57,59,61,63,65,67,69,71,73,75,77,79,81,83,85,87,89,91,93,95,97,-1,-1,-1,99,101,103,105,107,109,111,113,115,117,119,-1,-1,-1,-1,-1,-1,-1,-1,-1,-1,-1,-1,-1,-1,-1,-1,-1,-1,-1,-1,-1,-1,-1,-1,-1,-1,-1,-1,-1,-1,-1,-1,-1,-1,-1,-1,-1,-1,-1,-1,-1,-1,-1,-1,-1,-1,-1,-1,-1,-1,-1,-1,-1,-1,-1,-1,-1,-1],"loss_changes":[6.636349E4,1.2897672E4,1.57819375E4,2.2801406E3,2.131085E3,2.2032905E3,5.034867E3,2.285336E3,1.4179906E3,2.321713E3,1.7532665E3,2.050983E3,1.5108044E3,2.1195137E3,1.5955371E3,1.8335391E3,1.9538574E3,1.1840519E3,1.0472986E3,2.004813E3,1.9460171E3,1.129219E3,1.748081E3,1.1963989E3,3.4103125E2,1.3334319E3,1.4941104E3,1.9276387E3,1.9483403E3,1.4777373E3,1.541457E3,1.6655879E3,2.6762434E3,2.193625E3,1.8804158E3,8.8658044E2,5.8052246E2,1.8151315E2,5.273755E1,2.272475E3,1.7225245E3,1.1288687E3,1.252178E3,7.870979E2,1.8273015E2,1.4364299E3,5.889373E2,5.064392E2,1.2945642E3,0E0,0E0,0E0,8.113285E2,2.0042385E3,1.9943916E3,1.6902139E3,2.0153506E3,1.9207388E3,6.484606E2,1.6863701E3,1.3766223E2,1.3776455E3,5.206512E2,0E0,0E0,0E0,0E0,0E0,0E0,0E0,0E0,0E0,0E0,0E0,0E0,0E0,0E0,0E0,0E0,0E0,0E0,0E0,0E0,0E0,0E0,0E0,0E0,0E0,0E0,0E0,0E0,0E0,0E0,0E0,0E0,0E0,0E0,0E0,0E0,0E0,0E0,0E0,0E0,0E0,0E0,0E0,0E0,0E0,0E0,0E0,0E0,0E0,0E0,0E0,0E0,0E0,0E0,0E0,0E0,0E0,0E0],"parents":[2147483647,0,0,1,1,2,2,3,3,4,4,5,5,6,6,7,7,8,8,9,9,10,10,11,11,12,12,13,13,14,14,15,15,16,16,17,17,18,18,19,19,20,20,21,21,22,22,23,23,24,24,25,25,26,26,27,27,28,28,29,29,30,30,31,31,32,32,33,33,34,34,35,35,36,36,37,37,38,38,39,39,40,40,41,41,42,42,43,43,44,44,45,45,46,46,47,47,48,48,52,52,53,53,54,54,55,55,56,56,57,57,58,58,59,59,60,60,61,61,62,62],"right_children":[2,4,6,8,10,12,14,16,18,20,22,24,26,28,30,32,34,36,38,40,42,44,46,48,50,52,54,56,58,60,62,64,66,68,70,72,74,76,78,80,82,84,86,88,90,92,94,96,98,-1,-1,-1,100,102,104,106,108,110,112,114,116,118,120,-1,-1,-1,-1,-1,-1,-1,-1,-1,-1,-1,-1,-1,-1,-1,-1,-1,-1,-1,-1,-1,-1,-1,-1,-1,-1,-1,-1,-1,-1,-1,-1,-1,-1,-1,-1,-1,-1,-1,-1,-1,-1,-1,-1,-1,-1,-1,-1,-1,-1,-1,-1,-1,-1,-1,-1,-1,-1],"split_conditions":[-4.536654E-5,-9.4378287E-1,8.104585E-1,1.3882692E0,1.1676793E0,-8.220774E-1,1.6320653E0,6.8987536E-1,5.034632E-1,1.67715E0,-4.799832E-1,2.372523E0,-1.7995899E0,-1.8369748E-1,-8.962333E-1,8.6266017E-1,-7.986956E-1,-6.7451286E-1,-7.032687E-1,-4.958067E-1,-3.640735E-1,4.965363E-1,1.7316493E0,-1.3327029E0,-1.0214685E0,-1.3924185E0,3.8713992E-1,-3.5821427E-2,2.2482674E0,1.6312572E0,2.0323105E0,2.5499517E-1,1.0911217E-1,-1.9761415E0,2.0527188E-1,1.6155936E0,-5.7162706E-2,7.9374313E-1,-1.8149632E0,6.041064E-1,-7.3582196E-1,8.4409446E-1,1.23914324E-1,1.6843233E-1,8.8348347E-1,7.389759E-1,-1.8060878E-1,-1.9249524E0,1.7489794E0,2.36321E-1,1.1445658E0,-1.0382799E0,8.578701E-1,8.8492167E-1,1.1802388E0,-1.0429126E0,1.1027241E0,-2.250023E0,1.198285E0,-7.6824963E-1,5.5443096E-1,-8.413679E-1,9.184671E-1,-1.9234163E-1,-3.3695433E-1,8.606171E-1,-1.0853682E-1,-1.3803517E0,-4.6089935E-1,-4.5372072E-1,-9.2192866E-2,6.414313E-1,-2.9429847E-1,-3.9693817E-1,4.7505647E-2,2.0130864E-1,-3.134341E-1,3.7893674E-1,1.06142E0,-1.8986285E-1,-1.5039581E-2,5.9526604E-2,-7.741176E-2,-2.3326729E-1,-1.1215059E0,-3.5772613E-1,2.6026532E-1,-1.017556E0,-2.5468695E-1,4.413956E-1,-5.8014072E-2,2.827304E-1,-5.8697015E-2,-7.523282E-1,6.494709E-2,-2.374107E-1,4.935286E-1,9.7775154E-2,5.2058375E-1,-5.4248154E-2,-6.916769E-1,1.0295967E-1,-9.4485E-2,-5.8398772E-2,2.3519658E-1,-1.254272E-1,2.4197792E-1,3.1448683E-1,6.674298E-1,-6.061205E-1,1.7539452E-1,-6.8856347E-1,6.216016E-2,1.260312E-1,7.091438E-1,-4.5754227E-1,1.6274456E-2,9.535089E-2,4.304165E-1,-5.0497454E-1,7.242604E-2],"split_indices":[56,56,56,14,48,29,56,29,32,11,50,42,1,29,23,9,18,31,2,39,32,21,52,46,9,51,21,15,51,14,6,23,27,1,10,37,2,25,3,15,50,50,7,46,0,35,47,31,53,0,0,0,29,22,53,51,11,20,0,14,1,9,41,0,0,0,0,0,0,0,0,0,0,0,0,0,0,0,0,0,0,0,0,0,0,0,0,0,0,0,0,0,0,0,0,0,0,0,0,0,0,0,0,0,0,0,0,0,0,0,0,0,0,0,0,0,0,0,0,0,0],"split_type":[0,0,0,0,0,0,0,0,0,0,0,0,0,0,0,0,0,0,0,0,0,0,0,0,0,0,0,0,0,0,0,0,0,0,0,0,0,0,0,0,0,0,0,0,0,0,0,0,0,0,0,0,0,0,0,0,0,0,0,0,0,0,0,0,0,0,0,0,0,0,0,0,0,0,0,0,0,0,0,0,0,0,0,0,0,0,0,0,0,0,0,0,0,0,0,0,0,0,0,0,0,0,0,0,0,0,0,0,0,0,0,0,0,0,0,0,0,0,0,0,0],"sum_hessian":[7.634E3,3.859E3,3.775E3,1.292E3,2.567E3,2.123E3,1.652E3,1.24E3,5.2E1,2.389E3,1.78E2,4.75E2,1.648E3,1.252E3,4E2,8.8E2,3.6E2,4.1E1,1.1E1,2.329E3,6E1,2.1E1,1.57E2,4.68E2,7E0,4E1,1.608E3,5.51E2,7.01E2,1.07E2,2.93E2,8.09E2,7.1E1,2.14E2,1.46E2,1E1,3.1E1,5E0,6E0,9.48E2,1.381E3,1.7E1,4.3E1,1.5E1,6E0,1.48E2,9E0,3E1,4.38E2,2E0,5E0,4E0,3.6E1,1.019E3,5.89E2,2.92E2,2.59E2,6.89E2,1.2E1,1.02E2,5E0,2.72E2,2.1E1,3.91E2,4.18E2,7E0,6.4E1,6E0,2.08E2,6.4E1,8.2E1,7E0,3E0,2E1,1.1E1,3E0,2E0,2E0,4E0,6.94E2,2.54E2,2.9E2,1.091E3,6E0,1.1E1,3.3E1,1E1,5E0,1E1,3E0,3E0,1.05E2,4.3E1,6E0,3E0,2E0,2.8E1,4.2E2,1.8E1,3.1E1,5E0,8.69E2,1.5E2,5.25E2,6.4E1,3.5E1,2.57E2,2.08E2,5.1E1,7E0,6.82E2,8E0,4E0,1.5E1,8.7E1,2E0,3E0,3.6E1,2.36E2,4E0,1.7E1],"tree_param":{"num_deleted":"0","num_feature":"58","num_nodes":"121","size_leaf_vector":"1"}},{"base_weights":[5.1805995E-2,-2.6796956E0,2.8363116E0,-4.4714117E0,-1.0952275E0,2.033881E0,6.7758746E0,-6.507299E0,-3.1626606E0,-7.513027E-1,-3.4943602E0,1.2702949E0,3.553261E0,7.193386E0,-8.281056E-1,-6.86648E0,6.784609E0,-1.9046416E0,-4.763858E0,1.4949099E0,-1.1621875E0,-1.806411E0,-7.0334916E0,1.8499473E0,8.2862176E-2,5.0439334E0,2.605873E0,8.002938E0,3.5729108E0,1.5728106E0,-1.2294517E1,-4.8181634E0,-8.212044E0,-3.2080933E-1,1.1957478E1,-7.137751E-1,-5.1824336E0,-1.2834724E1,-4.237825E0,-2.734804E0,3.7300348E0,1.1428064E1,-1.2454587E0,-2.1523514E0,6.7170703E-1,-9.8378725E0,3.4841876E0,2.3379135E0,-8.9322996E-1,1.5041289E0,-2.0886776E0,4.4469743E0,1.292274E1,2.384452E0,1.7889606E1,7.1350174E0,1.1800376E1,4.5484443E0,-1.1709869E1,8.193366E0,-3.5824854E0,-2.8922284E-2,-7.2610205E-1,-2.0054355E-1,-7.435118E-1,-1.0064681E-1,-4.464489E-1,7.4317807E-1,-1.8263406E-1,-5.760413E-2,3.7653792E-1,-8.250643E-1,-2.1304043E-1,1.3797048E-2,-8.133448E-1,-2.7244544E-1,-7.829122E-2,-4.3293935E-1,5.6349754E-2,1.565051E-1,8.156164E-1,1.1296629E-1,7.517382E-1,-1.3066278E-1,-3.1457122E-2,-6.542022E-2,-4.860277E-1,-6.245517E-1,-1.1081123E-1,5.622954E-1,-6.669154E-2,4.0958914E-1,1.052802E-1,-3.65373E-1,2.1335098E-3,1.634523E-1,-3.598919E-2,-1.4082478E-1,5.260259E-1,3.2709315E-1,1.18085384E-1,7.787791E-1,-1.1977239E-1,6.886323E-1,1.0804553E-1,1.1396574E0,3.0309466E-1,3.759006E-1,-1.2992679E-1,2.4726593E-1,6.722728E-1,3.17115E-1,-1.7411248E-1,1.0820855E-1,-7.1914524E-1,3.6569636E-2,5.7142663E-1,-2.7805585E-1,3.752416E-1],"categories":[],"categories_nodes":[],"categories_segments":[],"categories_sizes":[],"default_left":[0,0,0,0,0,0,0,0,0,0,0,0,0,0,0,0,0,0,0,0,0,0,0,0,0,0,0,0,0,0,0,0,0,0,0,0,0,0,0,0,0,0,0,0,0,0,0,0,0,0,0,0,0,0,0,0,0,0,0,0,0,0,0,0,0,0,0,0,0,0,0,0,0,0,0,0,0,0,0,0,0,0,0,0,0,0,0,0,0,0,0,0,0,0,0,0,0,0,0,0,0,0,0,0,0,0,0,0,0,0,0,0,0,0,0,0,0,0,0],"id":6,"left_children":[1,3,5,7,9,11,13,15,17,19,21,23,25,27,29,31,33,35,37,39,41,43,45,47,49,51,53,55,57,59,61,63,65,-1,67,69,71,73,75,77,79,81,83,85,-1,87,89,91,93,95,97,99,101,103,105,107,109,111,113,115,117,-1,-1,-1,-1,-1,-1,-1,-1,-1,-1,-1,-1,-1,-1,-1,-1,-1,-1,-1,-1,-1,-1,-1,-1,-1,-1,-1,-1,-1,-1,-1,-1,-1,-1,-1,-1,-1,-1,-1,-1,-1,-1,-1,-1,-1,-1,-1,-1,-1,-1,-1,-1,-1,-1,-1,-1,-1,-1],"loss_changes":[5.7766668E4,1.0879512E4,1.187559E4,4.772801E3,1.677321E3,3.6221992E3,2.0250977E3,3.4028496E3,2.2006543E3,1.646407E3,1.5106323E3,1.4328838E3,1.4626523E3,1.7387793E3,9.5535333E2,1.8483887E3,1.3741553E3,2.4008035E3,1.99196E3,2.6194878E3,1.594181E3,9.4629877E2,2.4529148E3,1.8747578E3,2.1141963E3,1.8473799E3,2.1265762E3,1.537375E3,1.7230542E3,1.0191494E3,1.4818683E2,2.163857E3,1.8130977E3,0E0,6.893937E2,1.6456552E3,1.6404961E3,1.3094316E3,1.4606206E3,2.2059727E3,1.3152258E3,2.9672034E2,1.2611631E3,1.0794861E3,0E0,1.2867124E3,6.8813E2,1.5983242E3,1.2729645E3,1.627312E3,2.5166519E3,1.6358057E3,1.1751392E3,1.5816873E3,3.8380933E2,1.5218789E3,9.4844824E2,1.5491116E3,2.9072772E2,3.054707E2,4.1467633E2,0E0,0E0,0E0,0E0,0E0,0E0,0E0,0E0,0E0,0E0,0E0,0E0,0E0,0E0,0E0,0E0,0E0,0E0,0E0,0E0,0E0,0E0,0E0,0E0,0E0,0E0,0E0,0E0,0E0,0E0,0E0,0E0,0E0,0E0,0E0,0E0,0E0,0E0,0E0,0E0,0E0,0E0,0E0,0E0,0E0,0E0,0E0,0E0,0E0,0E0,0E0,0E0,0E0,0E0,0E0,0E0,0E0,0E0],"parents":[2147483647,0,0,1,1,2,2,3,3,4,4,5,5,6,6,7,7,8,8,9,9,10,10,11,11,12,12,13,13,14,14,15,15,16,16,17,17,18,18,19,19,20,20,21,21,22,22,23,23,24,24,25,25,26,26,27,27,28,28,29,29,30,30,31,31,32,32,34,34,35,35,36,36,37,37,38,38,39,39,40,40,41,41,42,42,43,43,45,45,46,46,47,47,48,48,49,49,50,50,51,51,52,52,53,53,54,54,55,55,56,56,57,57,58,58,59,59,60,60],"right_children":[2,4,6,8,10,12,14,16,18,20,22,24,26,28,30,32,34,36,38,40,42,44,46,48,50,52,54,56,58,60,62,64,66,-1,68,70,72,74,76,78,80,82,84,86,-1,88,90,92,94,96,98,100,102,104,106,108,110,112,114,116,118,-1,-1,-1,-1,-1,-1,-1,-1,-1,-1,-1,-1,-1,-1,-1,-1,-1,-1,-1,-1,-1,-1,-1,-1,-1,-1,-1,-1,-1,-1,-1,-1,-1,-1,-1,-1,-1,-1,-1,-1,-1,-1,-1,-1,-1,-1,-1,-1,-1,-1,-1,-1,-1,-1,-1,-1,-1,-1],"split_conditions":[1.1057427E-2,-7.2172695E-1,1.376701E0,-1.1322607E0,1.2184019E0,7.8825295E-1,1.0352039E0,1.8601527E0,-1.0554065E-1,-9.5799774E-1,7.227358E-1,3.506742E-1,-3.348927E-1,7.7387273E-1,-2.7761346E-1,-9.176021E-1,-1.4223228E0,9.8424E-1,-1.5802888E0,-1.4441904E-1,-1.9239917E0,1.8005861E0,1.6609969E0,8.8492167E-1,4.3169725E-1,1.8811554E0,2.6641479E0,8.5322976E-1,1.6843781E0,-4.8991892E-2,-5.6622136E-1,8.104655E-1,-1.263479E0,-3.2080933E-1,1.0548087E0,1.3747535E0,-1.5612545E0,-9.6319264E-1,2.2389878E-1,-8.586156E-1,8.966131E-1,-7.755755E-1,-4.958067E-1,1.0708178E0,6.7170703E-1,1.2595507E0,-6.639637E-1,-1.6791188E0,-7.986956E-1,4.2650187E-1,7.32739E-1,1.6651788E-1,2.430528E0,-1.3118144E0,2.4729567E0,1.6280483E0,-7.236756E-1,4.091191E-1,-3.340653E-1,-5.2472854E-1,1.4747145E0,-2.8922284E-2,-7.2610205E-1,-2.0054355E-1,-7.435118E-1,-1.0064681E-1,-4.464489E-1,7.4317807E-1,-1.8263406E-1,-5.760413E-2,3.7653792E-1,-8.250643E-1,-2.1304043E-1,1.3797048E-2,-8.133448E-1,-2.7244544E-1,-7.829122E-2,-4.3293935E-1,5.6349754E-2,1.565051E-1,8.156164E-1,1.1296629E-1,7.517382E-1,-1.3066278E-1,-3.1457122E-2,-6.542022E-2,-4.860277E-1,-6.245517E-1,-1.1081123E-1,5.622954E-1,-6.669154E-2,4.0958914E-1,1.052802E-1,-3.65373E-1,2.1335098E-3,1.634523E-1,-3.598919E-2,-1.4082478E-1,5.260259E-1,3.2709315E-1,1.18085384E-1,7.787791E-1,-1.1977239E-1,6.886323E-1,1.0804553E-1,1.1396574E0,3.0309466E-1,3.759006E-1,-1.2992679E-1,2.4726593E-1,6.722728E-1,3.17115E-1,-1.7411248E-1,1.0820855E-1,-7.1914524E-1,3.6569636E-2,5.7142663E-1,-2.7805585E-1,3.752416E-1],"split_indices":[56,56,56,17,33,56,35,13,24,50,27,21,29,29,36,50,49,33,3,40,17,30,25,22,52,2,15,34,52,7,4,2,3,0,43,43,29,46,0,45,2,4,39,30,0,30,43,46,18,7,56,4,17,45,1,32,22,20,2,32,50,0,0,0,0,0,0,0,0,0,0,0,0,0,0,0,0,0,0,0,0,0,0,0,0,0,0,0,0,0,0,0,0,0,0,0,0,0,0,0,0,0,0,0,0,0,0,0,0,0,0,0,0,0,0,0,0,0,0],"split_type":[0,0,0,0,0,0,0,0,0,0,0,0,0,0,0,0,0,0,0,0,0,0,0,0,0,0,0,0,0,0,0,0,0,0,0,0,0,0,0,0,0,0,0,0,0,0,0,0,0,0,0,0,0,0,0,0,0,0,0,0,0,0,0,0,0,0,0,0,0,0,0,0,0,0,0,0,0,0,0,0,0,0,0,0,0,0,0,0,0,0,0,0,0,0,0,0,0,0,0,0,0,0,0,0,0,0,0,0,0,0,0,0,0,0,0,0,0,0,0],"sum_hessian":[7.593E3,3.833E3,3.76E3,1.798E3,2.035E3,3.125E3,6.35E2,7.02E2,1.096E3,1.781E3,2.54E2,2.081E3,1.044E3,6.02E2,3.3E1,6.84E2,1.8E1,6.15E2,4.81E2,2.75E2,1.506E3,1.73E2,8.1E1,1.398E3,6.83E2,4.04E2,6.4E2,4.91E2,1.11E2,2.8E1,5E0,2.73E2,4.11E2,5E0,1.3E1,4.52E2,1.63E2,2.8E1,4.53E2,9.5E1,1.8E2,9E0,1.497E3,1.7E2,3E0,6.4E1,1.7E1,1.187E3,2.11E2,4.13E2,2.7E2,3.77E2,2.7E1,6.32E2,8E0,4.02E2,8.9E1,1.05E2,6E0,1.2E1,1.6E1,1E0,4E0,2.54E2,1.9E1,4.3E1,3.68E2,1.1E1,2E0,4.3E2,2.2E1,1.1E1,1.52E2,6E0,2.2E1,3.11E2,1.42E2,3.7E1,5.8E1,1.73E2,7E0,3E0,6E0,4.64E2,1.033E3,1.54E2,1.6E1,4.7E1,1.7E1,6E0,1.1E1,4.4E1,1.143E3,2.6E1,1.85E2,2.3E2,1.83E2,2.56E2,1.4E1,1.87E2,1.9E2,2.3E1,4E0,1.1E1,6.21E2,5E0,3E0,3.87E2,1.5E1,1.8E1,7.1E1,8.6E1,1.9E1,1E0,5E0,4E0,8E0,1.4E1,2E0],"tree_param":{"num_deleted":"0","num_feature":"58","num_nodes":"119","size_leaf_vector":"1"}},{"base_weights":[-3.2914843E-2,-2.7756996E0,2.8004768E0,-5.569868E0,-1.755176E0,1.348524E0,4.580601E0,-6.0905266E0,-7.89426E-1,6.103028E-1,-2.1094792E0,1.463635E0,-6.523975E0,3.804175E0,6.451742E0,-9.50892E0,-5.551257E0,-2.3034246E0,7.005121E0,1.5947387E-1,1.1299345E1,-3.537049E0,-1.3817776E0,-3.7982038E-1,1.8940785E0,1.9161923E0,-1.151124E1,1.5350608E0,4.705772E0,5.4990478E0,1.102499E1,-5.5020714E0,-1.2160216E1,-4.5606403E0,-8.138393E0,3.5280025E0,-3.875797E0,8.569186E0,-2.2038795E-1,-2.893383E0,1.3919632E0,1.4936748E1,-2.4376996E0,1.7583123E-1,-4.0779023E0,-2.8135421E0,-5.8020025E-1,3.522719E0,-2.437145E0,1.50003E0,5.3706026E0,4.5719686E0,-7.575125E0,-1.3886838E1,2.8937802E-1,5.9296805E-1,7.415535E0,6.336468E0,3.4988391E0,1.8413416E1,5.029778E0,4.2127857E0,1.4177916E1,-1.0173417E0,-1.9205576E-1,-6.641055E-1,1.4776227E-1,-4.0430814E-1,-1.6942176E-1,-6.7577265E-2,-4.6341905E-1,-3.6925307E-1,3.465245E-1,-6.406822E-1,-9.798815E-2,5.6195825E-2,4.8582026E-1,3.903779E-2,-8.059548E-2,-3.8602853E-1,8.440915E-3,1.1058197E-1,-2.666128E-1,3.4886545E-1,9.022151E-1,-1.5664871E-1,-8.796883E-3,4.2462847E-1,-8.0081396E-2,-2.3676936E-1,-2.4758538E-2,-5.328131E-1,-1.2664655E-1,1.8320732E-1,-5.273338E-2,1.5573674E-1,1.4446143E0,1.9503936E-1,-1.837718E-1,3.6236492E-1,6.516425E-2,-5.2328195E-2,3.8993844E-1,5.524161E-2,4.7482324E-1,-4.7150454E-1,-9.662986E-2,-1.3445972E-1,-8.047124E-1,1.06086135E-1,-2.9847133E-1,7.8105256E-2,6.2520343E-1,3.2905743E-1,-4.6390268E-1,1.6183995E-1,7.343351E-1,2.2553904E-1,1.1761695E0,-2.2862028E-1,2.7489415E-1,3.3158126E-1,-2.8807813E-1,6.274909E-1,1.430009E0],"categories":[],"categories_nodes":[],"categories_segments":[],"categories_sizes":[],"default_left":[0,0,0,0,0,0,0,0,0,0,0,0,0,0,0,0,0,0,0,0,0,0,0,0,0,0,0,0,0,0,0,0,0,0,0,0,0,0,0,0,0,0,0,0,0,0,0,0,0,0,0,0,0,0,0,0,0,0,0,0,0,0,0,0,0,0,0,0,0,0,0,0,0,0,0,0,0,0,0,0,0,0,0,0,0,0,0,0,0,0,0,0,0,0,0,0,0,0,0,0,0,0,0,0,0,0,0,0,0,0,0,0,0,0,0,0,0,0,0,0,0,0,0,0,0],"id":7,"left_children":[1,3,5,7,9,11,13,15,17,19,21,23,25,27,29,31,33,35,37,39,41,43,45,47,49,51,53,55,57,59,61,63,65,67,69,71,73,75,77,79,81,83,85,87,89,91,93,95,97,99,101,103,105,107,-1,109,111,113,115,117,119,121,123,-1,-1,-1,-1,-1,-1,-1,-1,-1,-1,-1,-1,-1,-1,-1,-1,-1,-1,-1,-1,-1,-1,-1,-1,-1,-1,-1,-1,-1,-1,-1,-1,-1,-1,-1,-1,-1,-1,-1,-1,-1,-1,-1,-1,-1,-1,-1,-1,-1,-1,-1,-1,-1,-1,-1,-1,-1,-1,-1,-1,-1,-1],"loss_changes":[5.9311203E4,1.10484E4,9.696623E3,2.5762578E3,2.3831582E3,1.8845E3,2.4248828E3,1.6708242E3,1.2316318E3,1.7860209E3,2.5631367E3,1.6194668E3,1.2848583E3,2.435496E3,2.0873281E3,1.2716348E3,2.0388027E3,8.1139197E2,1.9400854E2,1.3472805E3,7.859188E2,1.6754922E3,1.8793987E3,3.1157268E3,2.2577896E3,3.3711502E2,8.611758E2,1.8847263E3,1.6586211E3,2.3921182E3,1.7444541E3,1.2039835E3,1.3110967E3,2.4025898E3,1.6976719E3,7.566818E2,1.1565284E3,1.0865845E2,6.83096E0,1.523831E3,1.4172719E3,1.7091187E2,5.7389736E0,1.5953467E3,1.7125273E3,1.2670532E3,2.1223857E3,1.2969585E3,2.007781E3,1.6719753E3,2.6259287E3,1.6024698E2,1.3175507E1,3.7692163E2,0E0,2.9721914E3,1.3803801E3,1.4441016E3,1.3977739E3,8.8848096E2,1.809585E3,7.137461E2,9.794824E2,0E0,0E0,0E0,0E0,0E0,0E0,0E0,0E0,0E0,0E0,0E0,0E0,0E0,0E0,0E0,0E0,0E0,0E0,0E0,0E0,0E0,0E0,0E0,0E0,0E0,0E0,0E0,0E0,0E0,0E0,0E0,0E0,0E0,0E0,0E0,0E0,0E0,0E0,0E0,0E0,0E0,0E0,0E0,0E0,0E0,0E0,0E0,0E0,0E0,0E0,0E0,0E0,0E0,0E0,0E0,0E0,0E0,0E0,0E0,0E0,0E0,0E0],"parents":[2147483647,0,0,1,1,2,2,3,3,4,4,5,5,6,6,7,7,8,8,9,9,10,10,11,11,12,12,13,13,14,14,15,15,16,16,17,17,18,18,19,19,20,20,21,21,22,22,23,23,24,24,25,25,26,26,27,27,28,28,29,29,30,30,31,31,32,32,33,33,34,34,35,35,36,36,37,37,38,38,39,39,40,40,41,41,42,42,43,43,44,44,45,45,46,46,47,47,48,48,49,49,50,50,51,51,52,52,53,53,55,55,56,56,57,57,58,58,59,59,60,60,61,61,62,62],"right_children":[2,4,6,8,10,12,14,16,18,20,22,24,26,28,30,32,34,36,38,40,42,44,46,48,50,52,54,56,58,60,62,64,66,68,70,72,74,76,78,80,82,84,86,88,90,92,94,96,98,100,102,104,106,108,-1,110,112,114,116,118,120,122,124,-1,-1,-1,-1,-1,-1,-1,-1,-1,-1,-1,-1,-1,-1,-1,-1,-1,-1,-1,-1,-1,-1,-1,-1,-1,-1,-1,-1,-1,-1,-1,-1,-1,-1,-1,-1,-1,-1,-1,-1,-1,-1,-1,-1,-1,-1,-1,-1,-1,-1,-1,-1,-1,-1,-1,-1,-1,-1,-1,-1,-1,-1],"split_conditions":[1.1057427E-2,-1.0770164E0,7.8825295E-1,1.0027593E0,-1.0265684E0,2.152776E0,1.53214E0,-1.375388E0,1.6814908E0,6.059334E-1,-6.484485E-1,-7.2091126E-1,1.2478125E0,-6.2315243E-1,1.2998862E0,-6.4169174E-1,1.0237573E0,-1.7162732E0,3.2990378E-1,-1.076545E0,8.569044E-1,-7.97991E-1,-4.958067E-1,-5.4839754E-1,1.3440744E0,2.718236E-1,8.9311934E-1,1.2211329E0,-4.295839E-1,-1.9060712E0,-5.1894504E-1,-7.839728E-1,1.641432E0,-1.1327199E0,-1.727758E0,-1.7590644E0,-1.1967325E0,-1.5287403E0,6.436348E-1,-2.3037846E-1,1.482573E0,5.7041746E-1,-1.4850248E0,-1.0185912E0,1.3850523E0,-1.8730259E0,-3.7711096E-1,2.337309E0,-1.4054244E0,-1.3130597E0,7.205864E-2,-2.1024325E-1,1.7829169E0,-1.2466222E0,2.8937802E-1,6.925182E-1,1.6651788E-1,2.29597E0,2.6641479E0,-3.7411574E-1,-1.3632928E0,1.1706245E0,1.0922079E0,-1.0173417E0,-1.9205576E-1,-6.641055E-1,1.4776227E-1,-4.0430814E-1,-1.6942176E-1,-6.7577265E-2,-4.6341905E-1,-3.6925307E-1,3.465245E-1,-6.406822E-1,-9.798815E-2,5.6195825E-2,4.8582026E-1,3.903779E-2,-8.059548E-2,-3.8602853E-1,8.440915E-3,1.1058197E-1,-2.666128E-1,3.4886545E-1,9.022151E-1,-1.5664871E-1,-8.796883E-3,4.2462847E-1,-8.0081396E-2,-2.3676936E-1,-2.4758538E-2,-5.328131E-1,-1.2664655E-1,1.8320732E-1,-5.273338E-2,1.5573674E-1,1.4446143E0,1.9503936E-1,-1.837718E-1,3.6236492E-1,6.516425E-2,-5.2328195E-2,3.8993844E-1,5.524161E-2,4.7482324E-1,-4.7150454E-1,-9.662986E-2,-1.3445972E-1,-8.047124E-1,1.06086135E-1,-2.9847133E-1,7.8105256E-2,6.2520343E-1,3.2905743E-1,-4.6390268E-1,1.6183995E-1,7.343351E-1,2.2553904E-1,1.1761695E0,-2.2862028E-1,2.7489415E-1,3.3158126E-1,-2.8807813E-1,6.274909E-1,1.430009E0],"split_indices":[56,56,56,14,28,6,56,49,19,21,56,8,8,15,49,16,44,43,49,25,32,21,39,44,16,50,49,3,28,54,22,44,15,43,50,16,10,55,0,24,34,27,0,50,25,55,39,12,28,11,2,34,0,4,0,42,4,15,15,49,51,51,46,0,0,0,0,0,0,0,0,0,0,0,0,0,0,0,0,0,0,0,0,0,0,0,0,0,0,0,0,0,0,0,0,0,0,0,0,0,0,0,0,0,0,0,0,0,0,0,0,0,0,0,0,0,0,0,0,0,0,0,0,0,0],"split_type":[0,0,0,0,0,0,0,0,0,0,0,0,0,0,0,0,0,0,0,0,0,0,0,0,0,0,0,0,0,0,0,0,0,0,0,0,0,0,0,0,0,0,0,0,0,0,0,0,0,0,0,0,0,0,0,0,0,0,0,0,0,0,0,0,0,0,0,0,0,0,0,0,0,0,0,0,0,0,0,0,0,0,0,0,0,0,0,0,0,0,0,0,0,0,0,0,0,0,0,0,0,0,0,0,0,0,0,0,0,0,0,0,0,0,0,0,0,0,0,0,0,0,0,0,0],"sum_hessian":[7.63E3,3.877E3,3.753E3,1.036E3,2.841E3,2.068E3,1.685E3,9.34E2,1.02E2,3.7E2,2.471E3,2.039E3,2.9E1,1.193E3,4.92E2,1.25E2,8.09E2,8.6E1,1.6E1,3.56E2,1.4E1,8.33E2,1.638E3,3.86E2,1.653E3,1.1E1,1.8E1,3.4E2,8.53E2,4.09E2,8.3E1,5.1E1,7.4E1,5.87E2,2.22E2,1.8E1,6.8E1,1.3E1,3E0,1.02E2,2.54E2,1.1E1,3E0,1.06E2,7.27E2,5.87E2,1.051E3,1.33E2,2.53E2,1.486E3,1.67E2,9E0,2E0,1.6E1,2E0,2.94E2,4.6E1,3.61E2,4.92E2,1.3E1,3.96E2,2.7E1,5.6E1,4E0,4.7E1,6.9E1,5E0,1.45E2,4.42E2,3.2E1,1.9E2,4E0,1.4E1,1.1E1,5.7E1,2E0,1.1E1,2E0,1E0,3.9E1,6.3E1,2.27E2,2.7E1,4E0,7E0,2E0,1E0,1.8E1,8.8E1,6.14E2,1.13E2,1.9E1,5.68E2,1.05E2,9.46E2,1.32E2,1E0,4.1E1,2.12E2,4.8E1,1.438E3,4.6E1,1.21E2,6E0,3E0,1E0,1E0,3E0,1.3E1,2.39E2,5.5E1,2.2E1,2.4E1,3.56E2,5E0,4.82E2,1E1,4E0,9E0,1.8E1,3.78E2,2.2E1,5E0,5.2E1,4E0],"tree_param":{"num_deleted":"0","num_feature":"58","num_nodes":"125","size_leaf_vector":"1"}},{"base_weights":[7.1785725E-3,-2.5380774E0,2.625619E0,-4.5636053E0,-1.3127943E0,1.8411801E0,6.120992E0,-5.336249E0,-2.2479832E0,1.102614E1,-1.3999021E0,1.1467478E0,3.1734517E0,-1.2402105E1,6.2747517E0,-5.1592207E0,-1.7691103E1,-5.5710177E0,-1.0625248E0,1.4694956E1,1.8508191E0,-1.1171545E0,-4.6724067E0,1.3097221E0,-4.8079576E0,-1.1534978E0,3.4833803E0,2.2817587E-2,-7.532534E-1,-9.0950626E-1,6.617729E0,-7.62714E0,-4.336305E0,-4.332142E0,-2.2155077E1,-1.6348038E1,-2.8744226E0,2.881874E0,-2.197813E0,1.6999557E1,2.1146274E0,2.7628502E-1,-3.6659617E0,-6.1458826E0,-9.371167E-1,-7.6707363E0,-2.0653641E0,9.096434E-1,4.1831646E0,-9.150769E0,2.2086893E-1,9.87064E0,-2.3229666E0,3.593122E0,-8.767965E0,8.215487E0,-4.2934823E0,6.295052E0,1.44586735E1,3.3003944E-1,-4.0735164E-1,-7.5139016E-2,-2.5461105E-1,-3.0793542E-1,7.435309E-2,-4.7639218E-1,-1.2849654E0,4.312245E-2,-9.211766E-1,4.1200516E-1,-2.0431392E-1,3.5537392E-2,6.9417715E-1,5.6822E-1,-1.29108E-1,3.228205E-1,9.414148E-1,1.2894553E-2,1.4570251E-1,-2.225864E-3,-2.7272126E-1,-1.5455548E-1,-5.950779E-1,-6.2421083E-2,6.576745E-2,-4.591148E-2,-5.167864E-1,-1.4145415E-1,8.771972E-1,-1.7120254E-1,6.0328502E-2,-1.807801E-2,3.0283245E-1,-1.5142694E-1,-8.7857753E-1,1.4432387E-1,-4.5727864E-1,6.359067E-1,9.173014E-2,1.6555816E-1,-2.2755842E-1,2.0216964E-1,2.5307009E-2,1.852358E-1,-7.8108793E-1,8.046489E-1,-6.525513E-2,-4.2297783E-1,1.1924888E-1,5.654251E-1,2.8970477E-1,-7.331498E-2,8.7809134E-1],"categories":[],"categories_nodes":[],"categories_segments":[],"categories_sizes":[],"default_left":[0,0,0,0,0,0,0,0,0,0,0,0,0,0,0,0,0,0,0,0,0,0,0,0,0,0,0,0,0,0,0,0,0,0,0,0,0,0,0,0,0,0,0,0,0,0,0,0,0,0,0,0,0,0,0,0,0,0,0,0,0,0,0,0,0,0,0,0,0,0,0,0,0,0,0,0,0,0,0,0,0,0,0,0,0,0,0,0,0,0,0,0,0,0,0,0,0,0,0,0,0,0,0,0,0,0,0,0,0,0,0,0,0],"id":8,"left_children":[1,3,5,7,9,11,13,15,17,19,21,23,25,27,29,31,33,35,37,39,41,43,45,47,49,51,53,-1,-1,55,57,59,61,63,65,67,69,71,73,75,77,-1,79,81,83,85,87,89,91,93,95,97,99,101,103,105,107,109,111,-1,-1,-1,-1,-1,-1,-1,-1,-1,-1,-1,-1,-1,-1,-1,-1,-1,-1,-1,-1,-1,-1,-1,-1,-1,-1,-1,-1,-1,-1,-1,-1,-1,-1,-1,-1,-1,-1,-1,-1,-1,-1,-1,-1,-1,-1,-1,-1,-1,-1,-1,-1,-1,-1],"loss_changes":[5.0784254E4,9.583857E3,1.0287328E4,2.5930098E3,2.6046719E3,2.8357148E3,2.0373145E3,2.294916E3,1.4358716E3,5.450659E2,2.2090063E3,1.9656628E3,1.413457E3,2.1232446E2,1.688957E3,2.1541914E3,7.9853174E2,2.74289E3,1.2198798E3,3.1196436E2,1.4189807E2,1.9896562E3,1.4693438E3,2.256315E3,1.1813403E3,9.382885E2,1.3504434E3,0E0,0E0,1.0233933E3,1.5586055E3,2.0361738E3,1.727292E3,6.2304184E1,2.474336E2,6.945747E2,1.0842693E3,1.447179E3,1.1292021E3,7.1243164E1,3.7014427E0,0E0,1.9187649E1,1.2994639E3,1.4945048E3,1.5741025E3,1.5921606E3,2.2264167E3,2.0456626E3,1.4418491E3,6.755474E2,1.3684521E2,8.310783E2,1.3504004E3,8.272407E2,6.9598816E2,6.87927E2,1.5117109E3,1.2611914E3,0E0,0E0,0E0,0E0,0E0,0E0,0E0,0E0,0E0,0E0,0E0,0E0,0E0,0E0,0E0,0E0,0E0,0E0,0E0,0E0,0E0,0E0,0E0,0E0,0E0,0E0,0E0,0E0,0E0,0E0,0E0,0E0,0E0,0E0,0E0,0E0,0E0,0E0,0E0,0E0,0E0,0E0,0E0,0E0,0E0,0E0,0E0,0E0,0E0,0E0,0E0,0E0,0E0,0E0],"parents":[2147483647,0,0,1,1,2,2,3,3,4,4,5,5,6,6,7,7,8,8,9,9,10,10,11,11,12,12,13,13,14,14,15,15,16,16,17,17,18,18,19,19,20,20,21,21,22,22,23,23,24,24,25,25,26,26,29,29,30,30,31,31,32,32,33,33,34,34,35,35,36,36,37,37,38,38,39,39,40,40,42,42,43,43,44,44,45,45,46,46,47,47,48,48,49,49,50,50,51,51,52,52,53,53,54,54,55,55,56,56,57,57,58,58],"right_children":[2,4,6,8,10,12,14,16,18,20,22,24,26,28,30,32,34,36,38,40,42,44,46,48,50,52,54,-1,-1,56,58,60,62,64,66,68,70,72,74,76,78,-1,80,82,84,86,88,90,92,94,96,98,100,102,104,106,108,110,112,-1,-1,-1,-1,-1,-1,-1,-1,-1,-1,-1,-1,-1,-1,-1,-1,-1,-1,-1,-1,-1,-1,-1,-1,-1,-1,-1,-1,-1,-1,-1,-1,-1,-1,-1,-1,-1,-1,-1,-1,-1,-1,-1,-1,-1,-1,-1,-1,-1,-1,-1,-1,-1,-1],"split_conditions":[1.1057427E-2,-8.7716603E-1,1.3256282E0,-5.083769E-1,-2.3426373E0,7.6604736E-1,-2.1424758E0,1.8622862E0,-1.2470717E0,2.971037E-1,1.5130492E0,1.87286E0,-1.2346256E0,6.7213154E-1,7.831603E-3,-1.0414516E0,6.009776E-1,-1.2032943E0,-8.586156E-1,1.9639561E0,-3.5186788E-1,-1.889289E0,-5.353719E-1,1.1343111E0,5.7028824E-1,-2.3645542E0,1.8847023E0,2.2817587E-2,-7.532534E-1,-2.2739899E-1,1.5664186E0,-1.3753049E0,-3.884667E-1,-1.619939E0,-1.4014493E0,-1.9047598E0,-2.6390393E0,5.78612E-1,-2.4051037E0,-1.7601817E0,-1.5086512E-1,2.7628502E-1,-1.0652888E0,2.6555488E-1,9.5814675E-1,-6.7089844E-1,1.140521E0,-1.2686886E0,-4.9441978E-1,1.3630795E0,1.8581E0,-1.2562628E0,1.4755417E-1,1.0258648E0,4.2255867E-1,-4.038684E-1,-3.5674495E-1,-8.462114E-1,-6.512208E-1,3.3003944E-1,-4.0735164E-1,-7.5139016E-2,-2.5461105E-1,-3.0793542E-1,7.435309E-2,-4.7639218E-1,-1.2849654E0,4.312245E-2,-9.211766E-1,4.1200516E-1,-2.0431392E-1,3.5537392E-2,6.9417715E-1,5.6822E-1,-1.29108E-1,3.228205E-1,9.414148E-1,1.2894553E-2,1.4570251E-1,-2.225864E-3,-2.7272126E-1,-1.5455548E-1,-5.950779E-1,-6.2421083E-2,6.576745E-2,-4.591148E-2,-5.167864E-1,-1.4145415E-1,8.771972E-1,-1.7120254E-1,6.0328502E-2,-1.807801E-2,3.0283245E-1,-1.5142694E-1,-8.7857753E-1,1.4432387E-1,-4.5727864E-1,6.359067E-1,9.173014E-2,1.6555816E-1,-2.2755842E-1,2.0216964E-1,2.5307009E-2,1.852358E-1,-7.8108793E-1,8.046489E-1,-6.525513E-2,-4.2297783E-1,1.1924888E-1,5.654251E-1,2.8970477E-1,-7.331498E-2,8.7809134E-1],"split_indices":[56,56,56,17,24,56,12,4,45,3,29,0,1,1,17,41,37,49,45,48,1,10,39,10,40,1,27,0,0,51,5,20,5,0,17,0,45,43,55,20,0,0,0,30,2,4,27,41,8,7,25,15,47,29,19,17,20,1,8,0,0,0,0,0,0,0,0,0,0,0,0,0,0,0,0,0,0,0,0,0,0,0,0,0,0,0,0,0,0,0,0,0,0,0,0,0,0,0,0,0,0,0,0,0,0,0,0,0,0,0,0,0,0],"split_type":[0,0,0,0,0,0,0,0,0,0,0,0,0,0,0,0,0,0,0,0,0,0,0,0,0,0,0,0,0,0,0,0,0,0,0,0,0,0,0,0,0,0,0,0,0,0,0,0,0,0,0,0,0,0,0,0,0,0,0,0,0,0,0,0,0,0,0,0,0,0,0,0,0,0,0,0,0,0,0,0,0,0,0,0,0,0,0,0,0,0,0,0,0,0,0,0,0,0,0,0,0,0,0,0,0,0,0,0,0,0,0,0,0],"sum_hessian":[7.618E3,3.863E3,3.755E3,1.455E3,2.408E3,3.068E3,6.87E2,1.09E3,3.65E2,1.6E1,2.392E3,2.018E3,1.05E3,5E0,6.82E2,1.076E3,1.4E1,9.5E1,2.7E2,1.1E1,5E0,2.203E3,1.89E2,1.965E3,5.3E1,7E1,9.8E2,1E0,4E0,3.1E1,6.51E2,2.67E2,8.09E2,4E0,1E1,1.8E1,7.7E1,6E1,2.1E2,9E0,2E0,3E0,2E0,7.5E1,2.128E3,8.7E1,1.02E2,1.726E3,2.39E2,2.8E1,2.5E1,6E0,6.4E1,9.72E2,8E0,8E0,2.3E1,6.27E2,2.4E1,9E0,2.58E2,1.71E2,6.38E2,3E0,1E0,3E0,7E0,2E0,1.6E1,7E0,7E1,5.1E1,9E0,5E0,2.05E2,2E0,7E0,1E0,1E0,1E0,1E0,5E1,2.5E1,1.87E3,2.58E2,2.5E1,6.2E1,9.9E1,3E0,1.1E2,1.616E3,7E1,1.69E2,1.7E1,1.1E1,2E1,5E0,4E0,2E0,1.8E1,4.6E1,8.48E2,1.24E2,3E0,5E0,4E0,4E0,1.4E1,9E0,5.5E1,5.72E2,4E0,2E1],"tree_param":{"num_deleted":"0","num_feature":"58","num_nodes":"113","size_leaf_vector":"1"}},{"base_weights":[-1.6346157E-1,-2.0631971E0,2.4211063E0,-3.6602488E0,-6.7838514E-1,1.5030872E0,4.8019485E0,-4.72235E0,-1.0485181E0,-1.3100324E0,1.2472365E0,-1.1203955E0,2.1787937E0,3.1191719E0,6.2594604E0,-3.2657237E0,-6.107347E0,-2.7309973E0,1.137543E0,-6.320624E-1,-2.696549E0,8.4739614E-1,1.1313775E1,4.84249E0,-1.7251331E0,1.9068471E0,6.4433794E0,1.7186549E0,8.319751E0,7.3742223E0,3.896057E0,4.2059975E0,-3.7461138E0,-1.5285633E1,-5.7098103E0,5.694678E0,-3.4060326E0,4.313927E0,-1.5671396E0,-8.535692E-1,6.2577195E0,9.335181E0,-2.9899075E0,2.858879E0,-5.9728974E-1,-7.0672613E-1,1.4890788E1,-5.0473552E-2,8.231868E0,-7.2630057E0,-1.1415159E0,2.333928E0,-5.891638E-1,1.3955614E1,3.7080355E0,-1.553143E1,1.9250404E0,1.7356962E0,1.2238625E1,6.746107E0,1.9004547E1,2.586359E0,1.2607201E1,-5.7183614E-4,5.661816E-1,-1.2911122E-1,-3.8171408E-1,-8.423195E-2,-8.6566496E-1,-2.4770372E-1,-4.51591E-1,4.528614E-1,-4.783484E-1,-9.599065E-2,-3.7393934E-1,-7.418006E-2,3.7686726E-1,-4.9740288E-1,4.6892734E-3,-2.8007908E-2,-3.857481E-1,-4.6247747E-2,6.945409E-1,6.545516E-2,8.587122E-1,1.93843E-2,-2.0784524E-1,1.7981802E-1,-4.4671598E-1,1.1151289E0,-4.040664E-2,1.2112923E-1,-2.3217826E-1,9.156008E-1,-4.0310357E-2,2.1467212E-1,-3.2800192E-1,7.06703E-1,2.8772542E-1,-5.1969427E-1,1.7410544E-1,-1.5619269E-1,3.6926195E-2,1.2672958E-1,-1.18775666E-1,7.730942E-2,-1.6770214E-1,9.550498E-1,1.899722E-1,9.300022E-3,4.7481757E-1,8.817724E-2,-1.0942135E0,1.6866308E-1,-1.8539043E-2,-1.9549541E-1,2.70839E-1,1.2745546E0,4.720261E-1,5.316515E-1,2.8002542E-1,1.206231E0,3.225161E-1,-2.6486045E-2,2.9991135E-1,-1.0193944E-1,7.655858E-1],"categories":[],"categories_nodes":[],"categories_segments":[],"categories_sizes":[],"default_left":[0,0,0,0,0,0,0,0,0,0,0,0,0,0,0,0,0,0,0,0,0,0,0,0,0,0,0,0,0,0,0,0,0,0,0,0,0,0,0,0,0,0,0,0,0,0,0,0,0,0,0,0,0,0,0,0,0,0,0,0,0,0,0,0,0,0,0,0,0,0,0,0,0,0,0,0,0,0,0,0,0,0,0,0,0,0,0,0,0,0,0,0,0,0,0,0,0,0,0,0,0,0,0,0,0,0,0,0,0,0,0,0,0,0,0,0,0,0,0,0,0,0,0,0,0,0,0],"id":9,"left_children":[1,3,5,7,9,11,13,15,17,19,21,23,25,27,29,31,33,35,37,39,41,43,45,47,49,51,53,55,57,59,61,63,65,67,69,71,73,75,77,79,81,83,85,87,89,91,93,95,97,99,101,103,105,107,109,111,113,115,117,119,121,123,125,-1,-1,-1,-1,-1,-1,-1,-1,-1,-1,-1,-1,-1,-1,-1,-1,-1,-1,-1,-1,-1,-1,-1,-1,-1,-1,-1,-1,-1,-1,-1,-1,-1,-1,-1,-1,-1,-1,-1,-1,-1,-1,-1,-1,-1,-1,-1,-1,-1,-1,-1,-1,-1,-1,-1,-1,-1,-1,-1,-1,-1,-1,-1,-1],"loss_changes":[3.716875E4,9.646799E3,7.0021895E3,5.6150156E3,2.8453755E3,4.108023E3,2.1682559E3,2.8851426E3,2.1620938E3,1.6536646E3,2.3168677E3,1.7211946E3,2.1239531E3,3.0156372E3,1.2279883E3,2.5426528E3,2.6018184E3,1.9076885E3,2.206085E3,1.812284E3,2.0680278E3,1.6203279E3,9.5646875E2,7.301161E2,1.3879324E3,1.8487515E3,2.2085923E3,1.2011941E3,2.2493398E3,2.2313672E3,1.735783E3,1.2909102E3,2.9760996E3,7.9818164E2,1.7327344E3,1.3696013E3,1.8499685E3,2.2163496E3,1.9358235E3,2.3068418E3,2.0414126E3,8.583544E2,2.2286387E3,2.0585938E3,1.5872137E3,8.516698E1,9.2771484E2,5.654282E2,2.9883374E2,1.4155002E3,1.4632416E3,1.4046387E3,1.5047996E3,1.4428906E3,1.6699391E3,4.7808276E2,1.085154E3,7.2776514E2,1.7988486E3,1.3119297E3,8.728452E2,1.4490823E3,8.234236E2,0E0,0E0,0E0,0E0,0E0,0E0,0E0,0E0,0E0,0E0,0E0,0E0,0E0,0E0,0E0,0E0,0E0,0E0,0E0,0E0,0E0,0E0,0E0,0E0,0E0,0E0,0E0,0E0,0E0,0E0,0E0,0E0,0E0,0E0,0E0,0E0,0E0,0E0,0E0,0E0,0E0,0E0,0E0,0E0,0E0,0E0,0E0,0E0,0E0,0E0,0E0,0E0,0E0,0E0,0E0,0E0,0E0,0E0,0E0,0E0,0E0,0E0,0E0,0E0],"parents":[2147483647,0,0,1,1,2,2,3,3,4,4,5,5,6,6,7,7,8,8,9,9,10,10,11,11,12,12,13,13,14,14,15,15,16,16,17,17,18,18,19,19,20,20,21,21,22,22,23,23,24,24,25,25,26,26,27,27,28,28,29,29,30,30,31,31,32,32,33,33,34,34,35,35,36,36,37,37,38,38,39,39,40,40,41,41,42,42,43,43,44,44,45,45,46,46,47,47,48,48,49,49,50,50,51,51,52,52,53,53,54,54,55,55,56,56,57,57,58,58,59,59,60,60,61,61,62,62],"right_children":[2,4,6,8,10,12,14,16,18,20,22,24,26,28,30,32,34,36,38,40,42,44,46,48,50,52,54,56,58,60,62,64,66,68,70,72,74,76,78,80,82,84,86,88,90,92,94,96,98,100,102,104,106,108,110,112,114,116,118,120,122,124,126,-1,-1,-1,-1,-1,-1,-1,-1,-1,-1,-1,-1,-1,-1,-1,-1,-1,-1,-1,-1,-1,-1,-1,-1,-1,-1,-1,-1,-1,-1,-1,-1,-1,-1,-1,-1,-1,-1,-1,-1,-1,-1,-1,-1,-1,-1,-1,-1,-1,-1,-1,-1,-1,-1,-1,-1,-1,-1,-1,-1,-1,-1,-1,-1],"split_conditions":[3.4064507E-1,-4.830415E-1,1.1395476E0,-3.2667354E-1,5.5237454E-1,-6.8136626E-1,1.2273483E-1,2.5963825E-1,1.3429718E-3,4.9385765E-1,1.7691619E0,-1.2028241E0,1.7813087E0,1.6011513E0,2.2484252E-2,-1.3609493E0,-1.0587238E0,-1.5543456E0,2.6495707E-1,1.3221048E0,-1.8838152E0,-3.40674E-1,3.878171E-1,-7.980421E-1,-1.1673486E0,8.8837516E-1,-8.3792365E-1,-1.9060876E0,2.3884743E-1,-5.044716E-2,1.2514254E0,-2.0985101E-1,1.0511774E0,-4.8125854E-1,1.4256616E0,3.506297E-1,6.765089E-1,-9.013429E-1,-1.263479E0,1.485675E0,1.4105923E-2,-6.717965E-1,-4.0361694E-1,1.4860308E0,-2.0821533E0,9.019956E-1,8.992571E-1,4.0707046E-1,-1.0555702E0,7.560644E-1,1.6859044E-1,1.7079641E0,3.3759043E-1,1.3675978E0,7.9716074E-1,-6.1557215E-1,5.602454E-1,-6.048925E-1,1.4585052E-1,-8.962333E-1,1.4444014E-1,-2.3144299E-1,-1.2562628E0,-5.7183614E-4,5.661816E-1,-1.2911122E-1,-3.8171408E-1,-8.423195E-2,-8.6566496E-1,-2.4770372E-1,-4.51591E-1,4.528614E-1,-4.783484E-1,-9.599065E-2,-3.7393934E-1,-7.418006E-2,3.7686726E-1,-4.9740288E-1,4.6892734E-3,-2.8007908E-2,-3.857481E-1,-4.6247747E-2,6.945409E-1,6.545516E-2,8.587122E-1,1.93843E-2,-2.0784524E-1,1.7981802E-1,-4.4671598E-1,1.1151289E0,-4.040664E-2,1.2112923E-1,-2.3217826E-1,9.156008E-1,-4.0310357E-2,2.1467212E-1,-3.2800192E-1,7.06703E-1,2.8772542E-1,-5.1969427E-1,1.7410544E-1,-1.5619269E-1,3.6926195E-2,1.2672958E-1,-1.18775666E-1,7.730942E-2,-1.6770214E-1,9.550498E-1,1.899722E-1,9.300022E-3,4.7481757E-1,8.817724E-2,-1.0942135E0,1.6866308E-1,-1.8539043E-2,-1.9549541E-1,2.70839E-1,1.2745546E0,4.720261E-1,5.316515E-1,2.8002542E-1,1.206231E0,3.225161E-1,-2.6486045E-2,2.9991135E-1,-1.0193944E-1,7.655858E-1],"split_indices":[57,17,57,57,48,4,24,19,47,12,16,14,17,39,21,23,30,53,44,17,22,45,39,3,32,28,24,4,16,21,34,47,5,7,28,34,46,25,3,11,34,23,35,30,11,7,4,32,46,55,50,0,25,11,57,0,53,24,8,23,28,30,15,0,0,0,0,0,0,0,0,0,0,0,0,0,0,0,0,0,0,0,0,0,0,0,0,0,0,0,0,0,0,0,0,0,0,0,0,0,0,0,0,0,0,0,0,0,0,0,0,0,0,0,0,0,0,0,0,0,0,0,0,0,0,0,0],"split_type":[0,0,0,0,0,0,0,0,0,0,0,0,0,0,0,0,0,0,0,0,0,0,0,0,0,0,0,0,0,0,0,0,0,0,0,0,0,0,0,0,0,0,0,0,0,0,0,0,0,0,0,0,0,0,0,0,0,0,0,0,0,0,0,0,0,0,0,0,0,0,0,0,0,0,0,0,0,0,0,0,0,0,0,0,0,0,0,0,0,0,0,0,0,0,0,0,0,0,0,0,0,0,0,0,0,0,0,0,0,0,0,0,0,0,0,0,0,0,0,0,0,0,0,0,0,0,0],"sum_hessian":[7.568E3,4.362E3,3.206E3,2.025E3,2.337E3,2.315E3,8.91E2,1.439E3,5.86E2,1.76E3,5.77E2,4.74E2,1.841E3,4.15E2,4.76E2,7.03E2,7.36E2,3.31E2,2.55E2,1.183E3,5.77E2,5.56E2,2.1E1,4.3E1,4.31E2,1.732E3,1.09E2,3.28E2,8.7E1,3.22E2,1.54E2,4.2E1,6.61E2,2.9E1,7.07E2,2.4E1,3.07E2,1.17E2,1.38E2,1.147E3,3.6E1,1.3E1,5.64E2,2.32E2,3.24E2,5E0,1.6E1,1.8E1,2.5E1,4E1,3.91E2,1.479E3,2.53E2,2.8E1,8.1E1,3E0,3.25E2,3.3E1,5.4E1,3.07E2,1.5E1,1.35E2,1.9E1,2.7E1,1.5E1,5.1E2,1.51E2,4E0,2.5E1,5.78E2,1.29E2,2E1,4E0,2.26E2,8.1E1,4.2E1,7.5E1,2.2E1,1.16E2,1.101E3,4.6E1,1.9E1,1.7E1,7E0,6E0,1.45E2,4.19E2,2.19E2,1.3E1,2E0,3.22E2,3E0,2E0,1.3E1,3E0,1.1E1,7E0,6E0,1.9E1,3.1E1,9E0,1.9E2,2.01E2,1.419E3,6E1,1.43E2,1.1E2,1.8E1,1E1,5.1E1,3E1,1E0,2E0,1.99E2,1.26E2,1.3E1,2E1,8E0,4.6E1,6.8E1,2.39E2,1E1,5E0,7.1E1,6.4E1,3E0,1.6E1],"tree_param":{"num_deleted":"0","num_feature":"58","num_nodes":"127","size_leaf_vector":"1"}},{"base_weights":[-1.1457208E-3,-2.3752134E0,2.3886738E0,-3.726787E0,-8.9708734E-1,1.1310391E0,4.0093117E0,-5.193938E0,-1.89652E0,-7.599534E-1,-6.148298E0,6.6888523E-1,2.7729278E0,2.132907E0,4.7822022E0,-4.032706E0,-7.319945E0,-2.4321623E0,1.8507595E0,-6.874132E-1,-1.1317711E1,3.6746774E0,-8.636986E0,8.9658916E-1,-3.4037488E0,1.5339517E1,2.378435E0,1.8383928E-1,4.267608E0,-6.5430703E0,4.92564E0,-3.1979601E0,-6.764078E0,1.6525313E0,-7.891427E0,-1.2741903E0,-4.659941E0,8.9757055E-1,1.5884199E1,9.94854E0,-7.908732E-1,-1.9147455E1,3.473423E0,-3.9991483E-1,5.860374E0,-4.4326916E0,-1.702654E1,-4.8345013E0,1.0803888E0,1.005042E1,-5.0637226E0,1.913682E1,1.062054E0,2.0837839E0,1.5223106E1,-1.4094217E0,4.369213E0,4.9125566E0,-6.8759623E0,-9.825145E0,2.4694596E-1,3.5772731E0,6.206124E0,-4.3411765E-1,-1.314942E-1,-5.039279E-1,-1.3532123E-1,5.2738076E-1,-1.7271183E-1,-4.070184E-1,5.805301E-1,-2.379099E-1,-1.1242967E-2,1.7111932E-1,-2.9146874E-1,1.5490375E-1,-1.6151659E-1,8.954838E-1,9.3283646E-2,1.807531E-1,7.0102346E-1,-6.364326E-2,4.08867E-2,-1.2454945E0,-5.3540087E-1,-4.8825458E-2,3.3827737E-1,3.6108598E-1,3.652214E-2,-4.7537962E-1,1.6759771E-1,2.882036E-1,-9.8112106E-1,-2.919689E-1,6.260036E-1,4.7309265E-1,4.8692923E-2,2.5183422E-2,7.0349663E-1,6.3458097E-1,-2.9657933E-1,2.0391095E-1,1.1015021E0,9.162529E-2,-3.1232525E-2,3.1141946E-1,7.037074E-2,1.3797908E-1,8.99702E-1,7.645546E-2,-2.316234E-1,-1.8017006E-1,3.125373E-1,-7.6730055E-1,2.585591E-1,7.837289E-2,-7.168551E-1,6.584537E-2,-6.092623E-1,1.5605715E-1,5.6521875E-1,3.8707453E-1,1.8705864E-1],"categories":[],"categories_nodes":[],"categories_segments":[],"categories_sizes":[],"default_left":[0,0,0,0,0,0,0,0,0,0,0,0,0,0,0,0,0,0,0,0,0,0,0,0,0,0,0,0,0,0,0,0,0,0,0,0,0,0,0,0,0,0,0,0,0,0,0,0,0,0,0,0,0,0,0,0,0,0,0,0,0,0,0,0,0,0,0,0,0,0,0,0,0,0,0,0,0,0,0,0,0,0,0,0,0,0,0,0,0,0,0,0,0,0,0,0,0,0,0,0,0,0,0,0,0,0,0,0,0,0,0,0,0,0,0,0,0,0,0,0,0,0,0],"id":10,"left_children":[1,3,5,7,9,11,13,15,17,19,21,23,25,27,29,31,33,35,37,39,41,43,45,47,49,51,53,55,57,59,61,63,65,67,69,71,73,75,77,79,81,83,85,-1,87,89,91,93,95,97,99,101,103,105,107,109,111,113,115,117,-1,119,121,-1,-1,-1,-1,-1,-1,-1,-1,-1,-1,-1,-1,-1,-1,-1,-1,-1,-1,-1,-1,-1,-1,-1,-1,-1,-1,-1,-1,-1,-1,-1,-1,-1,-1,-1,-1,-1,-1,-1,-1,-1,-1,-1,-1,-1,-1,-1,-1,-1,-1,-1,-1,-1,-1,-1,-1,-1,-1,-1,-1],"loss_changes":[4.2898035E4,7.574299E3,7.675289E3,5.3096875E3,1.3009034E3,1.6090886E3,2.37692E3,2.6836797E3,1.7768601E3,1.346263E3,1.1562688E3,1.540606E3,2.273677E3,2.0046621E3,1.9247383E3,1.6040088E3,1.9974258E3,1.9881748E3,1.4705365E3,1.9412626E3,1.4562367E3,3.020088E2,1.2295964E3,1.660071E3,2.0162466E3,7.386975E2,1.6827463E3,1.6932614E3,1.6867954E3,6.137967E2,1.9650703E3,1.6844897E3,2.2052588E3,1.126637E3,1.8616816E3,1.8634275E3,2.515211E3,9.63772E2,1.6534558E2,3.8773608E2,1.3509004E3,1.2231836E2,7.985527E1,0E0,5.7577454E1,1.0590328E3,8.2304565E2,9.2763086E2,1.3506426E3,3.7664636E2,1.2926096E3,3.8940308E2,6.3427725E0,1.2358915E3,2.957002E2,1.7497513E3,1.0725756E3,1.221543E3,8.414408E2,3.3160327E2,0E0,1.9490479E3,2.20017E3,0E0,0E0,0E0,0E0,0E0,0E0,0E0,0E0,0E0,0E0,0E0,0E0,0E0,0E0,0E0,0E0,0E0,0E0,0E0,0E0,0E0,0E0,0E0,0E0,0E0,0E0,0E0,0E0,0E0,0E0,0E0,0E0,0E0,0E0,0E0,0E0,0E0,0E0,0E0,0E0,0E0,0E0,0E0,0E0,0E0,0E0,0E0,0E0,0E0,0E0,0E0,0E0,0E0,0E0,0E0,0E0,0E0,0E0,0E0,0E0],"parents":[2147483647,0,0,1,1,2,2,3,3,4,4,5,5,6,6,7,7,8,8,9,9,10,10,11,11,12,12,13,13,14,14,15,15,16,16,17,17,18,18,19,19,20,20,21,21,22,22,23,23,24,24,25,25,26,26,27,27,28,28,29,29,30,30,31,31,32,32,33,33,34,34,35,35,36,36,37,37,38,38,39,39,40,40,41,41,42,42,44,44,45,45,46,46,47,47,48,48,49,49,50,50,51,51,52,52,53,53,54,54,55,55,56,56,57,57,58,58,59,59,61,61,62,62],"right_children":[2,4,6,8,10,12,14,16,18,20,22,24,26,28,30,32,34,36,38,40,42,44,46,48,50,52,54,56,58,60,62,64,66,68,70,72,74,76,78,80,82,84,86,-1,88,90,92,94,96,98,100,102,104,106,108,110,112,114,116,118,-1,120,122,-1,-1,-1,-1,-1,-1,-1,-1,-1,-1,-1,-1,-1,-1,-1,-1,-1,-1,-1,-1,-1,-1,-1,-1,-1,-1,-1,-1,-1,-1,-1,-1,-1,-1,-1,-1,-1,-1,-1,-1,-1,-1,-1,-1,-1,-1,-1,-1,-1,-1,-1,-1,-1,-1,-1,-1,-1,-1,-1,-1],"split_conditions":[1.1057427E-2,-6.218018E-1,7.9935575E-1,-4.7562447E-1,2.0002341E0,6.1471146E-1,-3.5686716E-1,4.5468244E-1,8.6610883E-1,2.7702513E0,-7.576537E-1,4.7630745E-1,2.216022E-2,3.5386363E-1,-2.2121594E0,4.0204123E-1,-1.4886585E0,7.031145E-1,9.9448425E-1,-2.1609147E0,7.363654E-1,-1.6583481E0,5.6572366E-1,-1.6235704E0,-1.1187376E0,4.392016E-1,2.402337E0,3.4112224E-1,1.8605773E0,3.506297E-1,-4.988156E-1,-8.582451E-1,-2.1218051E-1,3.6924073E-1,1.7755506E0,-6.7639583E-1,-3.0317894E-1,3.5408682E-1,8.3228445E-1,-2.4416926E0,7.1807754E-1,-1.2630804E0,4.4392463E-2,-3.9991483E-1,1.0835762E0,6.2799364E-1,-6.618137E-1,1.9222279E0,-1.4321841E0,-1.128035E0,-1.8838152E0,-1.6194013E0,-3.5186788E-1,-6.038737E-1,-2.1031958E-1,5.93779E-1,-9.895223E-1,-2.3549888E0,7.2195727E-1,-8.582451E-1,2.4694596E-1,2.1515307E0,9.038379E-2,-4.3411765E-1,-1.314942E-1,-5.039279E-1,-1.3532123E-1,5.2738076E-1,-1.7271183E-1,-4.070184E-1,5.805301E-1,-2.379099E-1,-1.1242967E-2,1.7111932E-1,-2.9146874E-1,1.5490375E-1,-1.6151659E-1,8.954838E-1,9.3283646E-2,1.807531E-1,7.0102346E-1,-6.364326E-2,4.08867E-2,-1.2454945E0,-5.3540087E-1,-4.8825458E-2,3.3827737E-1,3.6108598E-1,3.652214E-2,-4.7537962E-1,1.6759771E-1,2.882036E-1,-9.8112106E-1,-2.919689E-1,6.260036E-1,4.7309265E-1,4.8692923E-2,2.5183422E-2,7.0349663E-1,6.3458097E-1,-2.9657933E-1,2.0391095E-1,1.1015021E0,9.162529E-2,-3.1232525E-2,3.1141946E-1,7.037074E-2,1.3797908E-1,8.99702E-1,7.645546E-2,-2.316234E-1,-1.8017006E-1,3.125373E-1,-7.6730055E-1,2.585591E-1,7.837289E-2,-7.168551E-1,6.584537E-2,-6.092623E-1,1.5605715E-1,5.6521875E-1,3.8707453E-1,1.8705864E-1],"split_indices":[56,56,56,18,29,30,4,29,53,35,31,30,56,24,14,4,32,23,39,40,13,1,45,24,44,32,1,15,45,34,30,5,14,5,3,13,19,5,5,40,26,15,1,0,11,1,1,54,39,34,22,3,1,40,4,10,30,20,24,5,0,24,31,0,0,0,0,0,0,0,0,0,0,0,0,0,0,0,0,0,0,0,0,0,0,0,0,0,0,0,0,0,0,0,0,0,0,0,0,0,0,0,0,0,0,0,0,0,0,0,0,0,0,0,0,0,0,0,0,0,0,0,0],"split_type":[0,0,0,0,0,0,0,0,0,0,0,0,0,0,0,0,0,0,0,0,0,0,0,0,0,0,0,0,0,0,0,0,0,0,0,0,0,0,0,0,0,0,0,0,0,0,0,0,0,0,0,0,0,0,0,0,0,0,0,0,0,0,0,0,0,0,0,0,0,0,0,0,0,0,0,0,0,0,0,0,0,0,0,0,0,0,0,0,0,0,0,0,0,0,0,0,0,0,0,0,0,0,0,0,0,0,0,0,0,0,0,0,0,0,0,0,0,0,0,0,0,0,0],"sum_hessian":[7.559E3,3.792E3,3.767E3,1.98E3,1.812E3,2.122E3,1.645E3,1.098E3,8.82E2,1.767E3,4.5E1,1.657E3,4.65E2,4.81E2,1.164E3,7.12E2,3.86E2,7.72E2,1.1E2,1.756E3,1.1E1,9E0,3.6E1,1.57E3,8.7E1,1.3E1,4.52E2,2.52E2,2.29E2,1.4E1,1.15E3,5.47E2,1.65E2,2.3E1,3.63E2,5.09E2,2.63E2,1.04E2,6E0,1.6E1,1.74E3,7E0,4E0,1E0,8E0,2.5E1,1.1E1,4.8E1,1.522E3,9E0,7.8E1,1E1,3E0,4.43E2,9E0,1.83E2,6.9E1,2.17E2,1.2E1,1.1E1,3E0,5.62E2,5.88E2,5E1,4.97E2,9E1,7.5E1,8E0,1.5E1,3.59E2,4E0,1.17E2,3.92E2,3.3E1,2.3E2,6.8E1,3.6E1,5E0,1E0,7E0,9E0,1.339E3,4.01E2,3E0,4E0,2E0,2E0,6E0,2E0,1.5E1,1E1,1E0,1E1,4.6E1,2E0,1.8E1,1.504E3,3E0,6E0,3E0,7.5E1,2E0,8E0,2E0,1E0,6.1E1,3.82E2,2E0,7E0,9.6E1,8.7E1,1.3E1,5.6E1,2E0,2.15E2,6E0,6E0,2E0,9E0,5.32E2,3E1,3.61E2,2.27E2],"tree_param":{"num_deleted":"0","num_feature":"58","num_nodes":"123","size_leaf_vector":"1"}},{"base_weights":[1.0297796E-1,-2.265252E0,2.47431E0,-3.7100031E0,-9.9818546E-1,1.3508261E0,3.9533443E0,-4.6280704E0,-1.4327624E0,-1.2007674E0,3.6851416E0,9.238647E-1,3.230139E0,3.4357939E0,6.431254E0,-5.616372E0,-2.964116E0,1.49507065E1,-1.6245803E0,-4.3101473E0,-8.719391E-1,-2.376525E0,6.2939243E0,9.9273294E-1,-1.0085133E1,4.131881E0,-7.084554E-1,-7.7056894E0,3.5580392E0,-7.949956E-1,6.648323E0,-4.174114E0,-7.267328E0,-3.4342725E0,4.0773296E0,8.973126E-1,-6.754428E-4,6.4808207E0,-1.9374715E0,-1.4222201E1,-3.3518941E0,-9.3784046E-1,6.8100107E-1,1.0118854E0,-1.0126933E1,6.1834556E-1,8.77056E0,1.1671315E0,-3.3254066E0,3.4506842E-1,-1.4626729E1,4.4235215E0,-9.707193E0,1.7220318E0,-6.641994E0,2.3920713E-1,-9.995213E0,3.7584758E0,-2.4265983E0,1.2734442E0,7.6492643E0,1.1492284E-1,-2.5129965E-1,-3.7878352E-1,2.919787E-1,8.647617E-3,-2.270712E-1,4.0413943E-1,-1.7879945E-1,5.564277E-1,-1.5382588E-1,-2.367508E-1,-4.8956964E-2,-8.436617E-1,1.4450063E-1,-3.588824E-1,-8.939233E-2,-3.4606744E-2,-1.993413E-1,4.7271362E-1,-1.8059264E-1,-1.8519764E-1,-5.825301E-1,-1.1176415E-1,5.939137E-1,5.766043E-1,9.537822E-3,6.133482E-2,-7.8180313E-1,3.9567557E-1,-3.06288E-1,-4.0328893E-1,-1.0405736E0,1.8765078E-1,4.956917E-1,-1.4577596E-1,-5.92038E-1,-1.4920257E-2,4.409214E-1,-4.6403947E-1,2.0930342E-1,2.0962839E-1,-5.7634544E-1,2.0683818E-1,3.1519752E-2,-3.805773E-1,7.278662E-2,4.2674622E-1,-9.716244E-2,5.918462E-2,4.4064838E-1],"categories":[],"categories_nodes":[],"categories_segments":[],"categories_sizes":[],"default_left":[0,0,0,0,0,0,0,0,0,0,0,0,0,0,0,0,0,0,0,0,0,0,0,0,0,0,0,0,0,0,0,0,0,0,0,0,0,0,0,0,0,0,0,0,0,0,0,0,0,0,0,0,0,0,0,0,0,0,0,0,0,0,0,0,0,0,0,0,0,0,0,0,0,0,0,0,0,0,0,0,0,0,0,0,0,0,0,0,0,0,0,0,0,0,0,0,0,0,0,0,0,0,0,0,0,0,0,0,0,0,0],"id":11,"left_children":[1,3,5,7,9,11,13,15,17,19,21,23,25,27,29,31,33,35,37,39,41,43,45,47,49,51,53,55,57,-1,59,61,63,65,67,-1,-1,69,71,73,75,77,-1,79,81,83,85,87,89,-1,91,93,95,97,99,-1,101,103,105,107,109,-1,-1,-1,-1,-1,-1,-1,-1,-1,-1,-1,-1,-1,-1,-1,-1,-1,-1,-1,-1,-1,-1,-1,-1,-1,-1,-1,-1,-1,-1,-1,-1,-1,-1,-1,-1,-1,-1,-1,-1,-1,-1,-1,-1,-1,-1,-1,-1,-1,-1],"loss_changes":[4.2528895E4,6.932426E3,6.282424E3,3.693836E3,1.9209154E3,1.7237683E3,2.0721348E3,2.0570527E3,1.6270366E3,1.9767314E3,1.3432977E3,1.3406011E3,1.4164624E3,1.8701924E3,1.4678281E3,1.8507383E3,1.5765967E3,2.6919824E2,1.2932913E3,1.7095061E3,1.686958E3,6.93048E2,8.239011E2,1.3180009E3,9.495486E2,1.3506147E3,1.093042E3,4.7675494E2,1.6153066E3,0E0,1.4912627E3,2.3494219E3,1.5274355E3,1.7700142E3,9.4855554E2,0E0,0E0,8.782167E2,1.3009995E3,7.7460425E2,1.0043895E3,1.3052614E3,0E0,7.758197E2,3.513867E1,6.370527E2,9.6922754E2,1.6986577E3,2.1886362E3,0E0,1.9733936E2,1.1334419E3,6.691144E1,7.768738E2,6.67457E2,0E0,3.3083508E2,1.5309688E3,8.967863E2,1.0676934E3,1.757709E3,0E0,0E0,0E0,0E0,0E0,0E0,0E0,0E0,0E0,0E0,0E0,0E0,0E0,0E0,0E0,0E0,0E0,0E0,0E0,0E0,0E0,0E0,0E0,0E0,0E0,0E0,0E0,0E0,0E0,0E0,0E0,0E0,0E0,0E0,0E0,0E0,0E0,0E0,0E0,0E0,0E0,0E0,0E0,0E0,0E0,0E0,0E0,0E0,0E0,0E0],"parents":[2147483647,0,0,1,1,2,2,3,3,4,4,5,5,6,6,7,7,8,8,9,9,10,10,11,11,12,12,13,13,14,14,15,15,16,16,17,17,18,18,19,19,20,20,21,21,22,22,23,23,24,24,25,25,26,26,27,27,28,28,30,30,31,31,32,32,33,33,34,34,37,37,38,38,39,39,40,40,41,41,43,43,44,44,45,45,46,46,47,47,48,48,50,50,51,51,52,52,53,53,54,54,56,56,57,57,58,58,59,59,60,60],"right_children":[2,4,6,8,10,12,14,16,18,20,22,24,26,28,30,32,34,36,38,40,42,44,46,48,50,52,54,56,58,-1,60,62,64,66,68,-1,-1,70,72,74,76,78,-1,80,82,84,86,88,90,-1,92,94,96,98,100,-1,102,104,106,108,110,-1,-1,-1,-1,-1,-1,-1,-1,-1,-1,-1,-1,-1,-1,-1,-1,-1,-1,-1,-1,-1,-1,-1,-1,-1,-1,-1,-1,-1,-1,-1,-1,-1,-1,-1,-1,-1,-1,-1,-1,-1,-1,-1,-1,-1,-1,-1,-1,-1,-1],"split_conditions":[-4.536654E-5,-7.2172695E-1,8.104585E-1,-5.083769E-1,1.6349007E0,6.7762274E-1,1.1590823E0,-4.6653292E-1,-2.3426373E0,-1.3910328E0,-1.0203167E0,2.5068781E0,8.1950563E-1,-2.2121594E0,-2.024941E0,1.6349024E-1,8.098464E-1,4.6374747E-1,-1.5874002E0,-1.3838817E0,2.5435774E0,-1.7073233E-1,-3.897606E-1,1.8092576E0,-1.0906767E0,2.4531717E0,6.375646E-1,-4.2105037E-1,1.9584875E0,-7.949956E-1,-8.558883E-1,-1.6619744E0,1.1951536E0,-8.477208E-1,8.659303E-1,8.973126E-1,-6.754428E-4,2.366622E-2,-5.453962E-1,1.0641228E0,-4.837464E-1,1.4243878E0,6.8100107E-1,-5.083769E-1,-9.8072714E-1,6.628377E-1,6.9115067E-1,2.7883515E0,1.3318816E-1,3.4506842E-1,-2.6947707E-1,1.003681E0,-3.3819196E-1,2.5499517E-1,1.3858502E0,2.3920713E-1,-2.952806E0,1.3614E0,1.8654405E-1,-5.869776E-1,4.3463358E-1,1.1492284E-1,-2.5129965E-1,-3.7878352E-1,2.919787E-1,8.647617E-3,-2.270712E-1,4.0413943E-1,-1.7879945E-1,5.564277E-1,-1.5382588E-1,-2.367508E-1,-4.8956964E-2,-8.436617E-1,1.4450063E-1,-3.588824E-1,-8.939233E-2,-3.4606744E-2,-1.993413E-1,4.7271362E-1,-1.8059264E-1,-1.8519764E-1,-5.825301E-1,-1.1176415E-1,5.939137E-1,5.766043E-1,9.537822E-3,6.133482E-2,-7.8180313E-1,3.9567557E-1,-3.06288E-1,-4.0328893E-1,-1.0405736E0,1.8765078E-1,4.956917E-1,-1.4577596E-1,-5.92038E-1,-1.4920257E-2,4.409214E-1,-4.6403947E-1,2.0930342E-1,2.0962839E-1,-5.7634544E-1,2.0683818E-1,3.1519752E-2,-3.805773E-1,7.278662E-2,4.2674622E-1,-9.716244E-2,5.918462E-2,4.4064838E-1],"split_indices":[56,56,56,17,53,30,49,47,24,49,0,11,12,14,13,22,39,0,6,24,1,49,49,26,14,3,4,49,12,0,7,6,9,46,35,0,0,17,26,6,13,52,0,17,23,45,39,20,56,0,1,41,25,23,12,0,14,9,50,41,57,0,0,0,0,0,0,0,0,0,0,0,0,0,0,0,0,0,0,0,0,0,0,0,0,0,0,0,0,0,0,0,0,0,0,0,0,0,0,0,0,0,0,0,0,0,0,0,0,0,0],"split_type":[0,0,0,0,0,0,0,0,0,0,0,0,0,0,0,0,0,0,0,0,0,0,0,0,0,0,0,0,0,0,0,0,0,0,0,0,0,0,0,0,0,0,0,0,0,0,0,0,0,0,0,0,0,0,0,0,0,0,0,0,0,0,0,0,0,0,0,0,0,0,0,0,0,0,0,0,0,0,0,0,0,0,0,0,0,0,0,0,0,0,0,0,0,0,0,0,0,0,0,0,0,0,0,0,0,0,0,0,0,0,0],"sum_hessian":[7.571E3,3.788E3,3.783E3,1.769E3,2.019E3,2.151E3,1.632E3,1.26E3,5.09E2,1.936E3,8.3E1,1.754E3,3.97E2,1.352E3,2.8E2,7.89E2,4.71E2,5E0,5.04E2,1.84E2,1.752E3,2.5E1,5.8E1,1.744E3,1E1,3.23E2,7.4E1,1.4E1,1.338E3,2E0,2.78E2,4.23E2,3.66E2,4.42E2,2.9E1,4E0,1E0,1.8E1,4.86E2,1.5E1,1.69E2,1.745E3,7E0,1.8E1,7E0,1.8E1,4E1,1.677E3,6.7E1,2E0,8E0,3.17E2,6E0,5.3E1,2.1E1,2E0,1.2E1,1.295E3,4.3E1,4.4E1,2.34E2,4.9E1,3.74E2,3.58E2,8E0,1.04E2,3.38E2,1.9E1,1E1,1.2E1,6E0,1.23E2,3.63E2,1.3E1,2E0,4.8E1,1.21E2,1.616E3,1.29E2,6E0,1.2E1,2E0,5E0,1.5E1,3E0,3E1,1E1,1.672E3,5E0,1.3E1,5.4E1,5E0,3E0,2.84E2,3.3E1,2E0,4E0,4.2E1,1.1E1,1.7E1,4E0,1E0,1.1E1,1.155E3,1.4E2,1.8E1,2.5E1,1.3E1,3.1E1,3.6E1,1.98E2],"tree_param":{"num_deleted":"0","num_feature":"58","num_nodes":"111","size_leaf_vector":"1"}},{"base_weights":[1.2562361E-1,-2.128307E0,2.3914058E0,-4.388763E0,-1.3523169E0,1.9066035E0,5.346583E0,-4.9738903E0,-6.836818E-1,-9.825292E-1,-3.0438542E0,1.0207571E0,2.465621E0,-9.022783E0,5.52696E0,1.9704583E0,-5.259947E0,1.5527524E-1,-1.3916664E1,-1.5993363E0,-6.4232866E-3,-6.986839E-1,-4.5470486E0,1.444993E0,-3.1469295E0,2.0639782E0,4.953575E0,1.1870762E-1,-7.0281947E-1,8.409144E0,4.5836377E0,5.0652995E0,-5.963691E0,-5.588282E0,7.113248E-1,9.034199E-1,-9.754113E0,-1.36417E0,-4.3994492E-1,-6.0438104E0,-1.1798491E0,-4.0140483E-1,4.705234E0,-2.493111E0,4.3253517E0,-7.807048E-1,-5.724713E0,1.6196572E0,-9.600309E0,5.200219E0,-4.2403255E0,1.8882651E0,6.661119E0,1.0031895E1,3.5331495E0,-6.426764E0,9.313064E0,8.858493E0,3.8474126E0,3.813232E-1,-2.1580647E-1,-3.9138535E-1,2.7031124E-1,-4.7915098E-1,-2.5076172E-1,-4.1780302E-1,2.0446828E-1,-1.0451325E-2,4.3151584E-1,-8.624363E-1,-1.5433917E-2,-3.0884248E-1,2.721804E-1,-5.25873E-1,-1.5202206E-1,1.8960302E-1,-7.2366275E-2,-2.707185E-1,-2.7363854E-3,8.9569315E-2,4.265326E-1,-2.9882166E-1,-1.8440945E-2,-6.2481035E-2,6.440027E-1,-2.3381026E-3,-1.3773117E0,-2.6370847E-1,-8.9529675E-1,1.0434727E-2,1.5328231E-1,-6.863505E-1,4.1374484E-1,6.714272E-1,-4.315665E-2,-2.8238353E-1,1.6470934E-1,1.0077586E-1,-2.128332E-1,6.041548E-1,9.891531E-2,2.9618034E-1,8.191666E-1,-1.6670494E-1,2.4101089E-1,-5.682439E-1,2.7958584E-1,3.0741116E-1,6.528315E-1,6.364427E-1,-6.1233163E-2,-1.7777377E-1,2.1102531E-1],"categories":[],"categories_nodes":[],"categories_segments":[],"categories_sizes":[],"default_left":[0,0,0,0,0,0,0,0,0,0,0,0,0,0,0,0,0,0,0,0,0,0,0,0,0,0,0,0,0,0,0,0,0,0,0,0,0,0,0,0,0,0,0,0,0,0,0,0,0,0,0,0,0,0,0,0,0,0,0,0,0,0,0,0,0,0,0,0,0,0,0,0,0,0,0,0,0,0,0,0,0,0,0,0,0,0,0,0,0,0,0,0,0,0,0,0,0,0,0,0,0,0,0,0,0,0,0,0,0,0,0,0,0],"id":12,"left_children":[1,3,5,7,9,11,13,15,17,19,21,23,25,27,29,31,33,35,37,39,41,43,45,47,49,51,53,-1,-1,55,57,59,61,63,65,67,69,-1,71,73,75,77,79,81,83,85,87,89,91,93,95,97,99,101,103,105,107,109,111,-1,-1,-1,-1,-1,-1,-1,-1,-1,-1,-1,-1,-1,-1,-1,-1,-1,-1,-1,-1,-1,-1,-1,-1,-1,-1,-1,-1,-1,-1,-1,-1,-1,-1,-1,-1,-1,-1,-1,-1,-1,-1,-1,-1,-1,-1,-1,-1,-1,-1,-1,-1,-1,-1],"loss_changes":[3.8843188E4,6.682416E3,5.423949E3,2.1081777E3,1.773457E3,1.6118477E3,1.4339424E3,1.6809941E3,1.4898159E3,1.4040146E3,1.7911738E3,2.2376353E3,1.9863145E3,4.3494568E2,1.396999E3,8.650756E2,1.5881211E3,9.5034644E2,1.4291144E3,2.657096E3,1.6842487E3,1.8138367E3,1.3705317E3,2.228362E3,1.0898787E3,1.3784155E3,1.9626602E3,0E0,0E0,1.7898027E3,1.2248203E3,6.336012E2,2.5425534E2,1.7054473E3,1.3512607E3,1.0246993E3,6.317845E2,0E0,2.0239125E2,1.6206528E3,1.7436259E3,1.4508339E3,7.649862E2,1.0929358E3,2.5437832E3,1.4720394E3,1.2007695E3,2.3048271E3,1.441371E3,7.100678E2,1.1213851E3,1.306626E3,1.5756726E3,1.4685635E3,1.9428896E3,5.3833813E2,1.3651562E3,2.2790654E3,9.623618E2,0E0,0E0,0E0,0E0,0E0,0E0,0E0,0E0,0E0,0E0,0E0,0E0,0E0,0E0,0E0,0E0,0E0,0E0,0E0,0E0,0E0,0E0,0E0,0E0,0E0,0E0,0E0,0E0,0E0,0E0,0E0,0E0,0E0,0E0,0E0,0E0,0E0,0E0,0E0,0E0,0E0,0E0,0E0,0E0,0E0,0E0,0E0,0E0,0E0,0E0,0E0,0E0,0E0,0E0],"parents":[2147483647,0,0,1,1,2,2,3,3,4,4,5,5,6,6,7,7,8,8,9,9,10,10,11,11,12,12,13,13,14,14,15,15,16,16,17,17,18,18,19,19,20,20,21,21,22,22,23,23,24,24,25,25,26,26,29,29,30,30,31,31,32,32,33,33,34,34,35,35,36,36,38,38,39,39,40,40,41,41,42,42,43,43,44,44,45,45,46,46,47,47,48,48,49,49,50,50,51,51,52,52,53,53,54,54,55,55,56,56,57,57,58,58],"right_children":[2,4,6,8,10,12,14,16,18,20,22,24,26,28,30,32,34,36,38,40,42,44,46,48,50,52,54,-1,-1,56,58,60,62,64,66,68,70,-1,72,74,76,78,80,82,84,86,88,90,92,94,96,98,100,102,104,106,108,110,112,-1,-1,-1,-1,-1,-1,-1,-1,-1,-1,-1,-1,-1,-1,-1,-1,-1,-1,-1,-1,-1,-1,-1,-1,-1,-1,-1,-1,-1,-1,-1,-1,-1,-1,-1,-1,-1,-1,-1,-1,-1,-1,-1,-1,-1,-1,-1,-1,-1,-1,-1,-1,-1,-1],"split_conditions":[1.1057427E-2,-1.099222E0,1.4655234E0,8.135097E-1,1.0615138E0,4.3296358E-1,-4.8261827E-1,-1.7856789E0,1.118463E0,5.4723257E-1,3.040716E-1,3.8855243E-1,6.6504025E-1,-1.6726015E0,-8.962333E-1,-1.8885322E-2,4.6694762E-1,2.7820843E-1,-6.455528E-1,-1.2739232E0,-1.1107331E-1,5.4920703E-1,-6.6296566E-1,2.1929321E0,-1.2468758E0,2.0288367E0,-5.01533E-1,1.1870762E-1,-7.0281947E-1,-3.371654E-1,-7.9550236E-1,5.2736366E-1,-3.1655675E-1,-1.0614593E0,-1.1079484E0,1.7111135E0,5.717286E-1,-1.36417E0,9.422144E-2,1.7248635E-1,-1.6051522E0,-1.5104342E0,2.0948333E-1,-6.773158E-1,4.8378286E-1,1.0693725E0,1.4036283E0,-8.0722146E-2,1.6608199E0,-7.769923E-2,1.1216642E0,1.693287E0,1.3481905E0,7.995545E-1,-7.9734826E-1,1.1683043E0,1.0604903E0,7.064431E-1,-9.843597E-1,3.813232E-1,-2.1580647E-1,-3.9138535E-1,2.7031124E-1,-4.7915098E-1,-2.5076172E-1,-4.1780302E-1,2.0446828E-1,-1.0451325E-2,4.3151584E-1,-8.624363E-1,-1.5433917E-2,-3.0884248E-1,2.721804E-1,-5.25873E-1,-1.5202206E-1,1.8960302E-1,-7.2366275E-2,-2.707185E-1,-2.7363854E-3,8.9569315E-2,4.265326E-1,-2.9882166E-1,-1.8440945E-2,-6.2481035E-2,6.440027E-1,-2.3381026E-3,-1.3773117E0,-2.6370847E-1,-8.9529675E-1,1.0434727E-2,1.5328231E-1,-6.863505E-1,4.1374484E-1,6.714272E-1,-4.315665E-2,-2.8238353E-1,1.6470934E-1,1.0077586E-1,-2.128332E-1,6.041548E-1,9.891531E-2,2.9618034E-1,8.191666E-1,-1.6670494E-1,2.4101089E-1,-5.682439E-1,2.7958584E-1,3.0741116E-1,6.528315E-1,6.364427E-1,-6.1233163E-2,-1.7777377E-1,2.1102531E-1],"split_indices":[56,56,56,14,33,56,39,12,3,36,19,56,30,9,23,41,39,18,0,39,56,41,46,6,22,2,54,0,0,18,43,7,1,15,21,19,9,0,20,26,7,10,51,56,36,1,51,20,1,23,13,44,0,11,52,0,41,16,11,0,0,0,0,0,0,0,0,0,0,0,0,0,0,0,0,0,0,0,0,0,0,0,0,0,0,0,0,0,0,0,0,0,0,0,0,0,0,0,0,0,0,0,0,0,0,0,0,0,0,0,0,0,0],"split_type":[0,0,0,0,0,0,0,0,0,0,0,0,0,0,0,0,0,0,0,0,0,0,0,0,0,0,0,0,0,0,0,0,0,0,0,0,0,0,0,0,0,0,0,0,0,0,0,0,0,0,0,0,0,0,0,0,0,0,0,0,0,0,0,0,0,0,0,0,0,0,0,0,0,0,0,0,0,0,0,0,0,0,0,0,0,0,0,0,0,0,0,0,0,0,0,0,0,0,0,0,0,0,0,0,0,0,0,0,0,0,0,0,0],"sum_hessian":[7.604E3,3.812E3,3.792E3,9.73E2,2.839E3,3.259E3,5.33E2,8.4E2,1.33E2,2.331E3,5.08E2,1.262E3,1.997E3,6E0,5.27E2,3.3E1,8.07E2,1.26E2,7E0,1.428E3,9.03E2,1.99E2,3.09E2,1.146E3,1.16E2,1.721E3,2.76E2,2E0,4E0,1.28E2,3.99E2,2.4E1,9E0,7.65E2,4.2E1,1.18E2,8E0,3E0,4E0,1.22E2,1.306E3,8.34E2,6.9E1,1.47E2,5.2E1,7.4E1,2.35E2,1.129E3,1.7E1,1.3E1,1.03E2,1.659E3,6.2E1,5.9E1,2.17E2,7E0,1.21E2,5.7E1,3.42E2,1.9E1,5E0,8E0,1E0,9.4E1,6.71E2,1.1E1,3.1E1,1.04E2,1.4E1,4E0,4E0,2E0,2E0,4.8E1,7.4E1,6.6E1,1.24E3,5.3E1,7.81E2,4E1,2.9E1,5.5E1,9.2E1,3.2E1,2E1,7.3E1,1E0,2.28E2,7E0,5.72E2,5.57E2,1.4E1,3E0,5E0,8E0,8.7E1,1.6E1,1.626E3,3.3E1,2.8E1,3.4E1,3.7E1,2.2E1,3.4E1,1.83E2,5E0,2E0,6.7E1,5.4E1,4.1E1,1.6E1,1.6E1,3.26E2],"tree_param":{"num_deleted":"0","num_feature":"58","num_nodes":"113","size_leaf_vector":"1"}},{"base_weights":[-8.5338905E-2,-2.3094757E0,1.8216281E0,-3.910528E0,-1.3789327E0,7.3617953E-1,3.3705456E0,-3.7794118E0,-1.4803423E1,-8.2675517E-1,-2.4615707E0,6.9350874E-1,1.5279286E1,2.2616642E0,4.3539615E0,1.2183056E0,-4.0313287E0,-4.7770715E0,-1.9338892E1,-2.6516595E-1,-2.7410812E0,4.090649E0,-2.9154131E0,1.5188031E0,1.3862146E-1,1.1008841E0,1.0365236E0,1.3029999E-1,3.5880637E0,5.2942104E0,1.8027363E0,4.5837255E0,-6.0782623E0,-4.685075E0,-1.9394164E0,-2.7796367E-1,-2.165155E-2,-2.7039888E1,-9.698246E0,3.6244586E0,-6.303798E-1,-4.260948E0,8.073336E-1,-4.105421E0,7.1643806E0,1.7665818E0,-3.4782777E0,2.4816325E0,-9.095485E-1,2.79713E-1,-6.976334E0,6.8100885E-2,1.4465421E-2,-1.303001E-1,7.922243E-1,3.2553973E0,1.466619E1,-4.112744E0,5.53733E0,-7.4733505E0,2.7643147E0,5.4981226E-1,5.5442292E-2,-7.4398535E-1,-9.721531E-3,-2.5107658E-1,9.266671E-2,3.2076606E-1,-1.2244194E-1,-1.5147303E0,-3.505257E-1,-1.8385427E-1,-5.894777E-1,5.9105963E-2,6.261706E-1,-1.991765E-1,-1.0933532E-2,-2.7409118E-1,1.0902282E-1,2.2990024E-1,-1.223323E-1,-4.6631026E-1,3.5786155E-1,8.506649E-1,2.1001951E-1,-1.1564779E-1,2.3930429E-1,-1.8387489E-1,5.305054E-1,8.239558E-2,2.893333E-1,-1.056722E-1,2.9097626E-1,2.0909628E-2,-3.4170672E-1,-4.457914E-1,3.4447905E-1,1.3326283E-2,-8.445873E-1,8.2902804E-2,2.6478648E-1,8.489917E-1,-3.852795E-1,1.9191852E-1,-3.42725E-1,3.1743094E-1,1.1957937E-1,-5.8688205E-1,2.3208601E-2,1.942553E-1,-1.9708726E-1],"categories":[],"categories_nodes":[],"categories_segments":[],"categories_sizes":[],"default_left":[0,0,0,0,0,0,0,0,0,0,0,0,0,0,0,0,0,0,0,0,0,0,0,0,0,0,0,0,0,0,0,0,0,0,0,0,0,0,0,0,0,0,0,0,0,0,0,0,0,0,0,0,0,0,0,0,0,0,0,0,0,0,0,0,0,0,0,0,0,0,0,0,0,0,0,0,0,0,0,0,0,0,0,0,0,0,0,0,0,0,0,0,0,0,0,0,0,0,0,0,0,0,0,0,0,0,0,0,0,0,0],"id":13,"left_children":[1,3,5,7,9,11,13,15,17,19,21,23,25,27,29,31,33,35,37,39,41,43,45,47,49,51,-1,53,55,57,59,61,63,65,67,-1,-1,69,71,73,75,77,79,81,83,85,87,89,91,93,95,-1,-1,97,-1,99,101,103,105,107,109,-1,-1,-1,-1,-1,-1,-1,-1,-1,-1,-1,-1,-1,-1,-1,-1,-1,-1,-1,-1,-1,-1,-1,-1,-1,-1,-1,-1,-1,-1,-1,-1,-1,-1,-1,-1,-1,-1,-1,-1,-1,-1,-1,-1,-1,-1,-1,-1,-1,-1],"loss_changes":[3.2259717E4,5.225463E3,6.8823203E3,1.7864707E3,1.3262959E3,1.4843473E3,1.8298125E3,1.6114082E3,5.897295E2,1.5828439E3,2.2421812E3,1.1002322E3,5.182018E2,2.2470298E3,2.1325703E3,1.550334E3,1.6525215E3,1.7980148E1,4.8018652E2,1.6217058E3,1.8047412E3,1.2638462E3,1.8561465E3,2.26085E3,1.445502E3,2.4174595E-1,0E0,1.2551707E3,1.7580625E3,1.5139082E3,2.1792227E3,9.459643E2,1.0328313E3,2.044207E3,1.2542319E3,0E0,0E0,1.1356885E2,3.2201416E1,2.1151533E3,1.439014E3,1.8521646E3,1.257061E3,8.899479E2,9.794531E2,9.472516E2,1.798812E3,1.8972539E3,2.2401025E3,1.3928657E3,8.144259E2,0E0,0E0,2.0132168E3,0E0,1.545813E3,8.5548413E2,3.9691034E2,1.6079551E3,7.8394995E2,1.6688547E3,0E0,0E0,0E0,0E0,0E0,0E0,0E0,0E0,0E0,0E0,0E0,0E0,0E0,0E0,0E0,0E0,0E0,0E0,0E0,0E0,0E0,0E0,0E0,0E0,0E0,0E0,0E0,0E0,0E0,0E0,0E0,0E0,0E0,0E0,0E0,0E0,0E0,0E0,0E0,0E0,0E0,0E0,0E0,0E0,0E0,0E0,0E0,0E0,0E0,0E0],"parents":[2147483647,0,0,1,1,2,2,3,3,4,4,5,5,6,6,7,7,8,8,9,9,10,10,11,11,12,12,13,13,14,14,15,15,16,16,17,17,18,18,19,19,20,20,21,21,22,22,23,23,24,24,25,25,27,27,28,28,29,29,30,30,31,31,32,32,33,33,34,34,37,37,38,38,39,39,40,40,41,41,42,42,43,43,44,44,45,45,46,46,47,47,48,48,49,49,50,50,53,53,55,55,56,56,57,57,58,58,59,59,60,60],"right_children":[2,4,6,8,10,12,14,16,18,20,22,24,26,28,30,32,34,36,38,40,42,44,46,48,50,52,-1,54,56,58,60,62,64,66,68,-1,-1,70,72,74,76,78,80,82,84,86,88,90,92,94,96,-1,-1,98,-1,100,102,104,106,108,110,-1,-1,-1,-1,-1,-1,-1,-1,-1,-1,-1,-1,-1,-1,-1,-1,-1,-1,-1,-1,-1,-1,-1,-1,-1,-1,-1,-1,-1,-1,-1,-1,-1,-1,-1,-1,-1,-1,-1,-1,-1,-1,-1,-1,-1,-1,-1,-1,-1,-1],"split_conditions":[-9.226024E-2,-9.4378287E-1,7.9935575E-1,2.9201894E0,5.580655E-1,2.9673014E0,1.2273483E-1,-1.7856789E0,-5.696517E-1,6.6215247E-1,-5.472747E-1,-6.4806305E-2,-6.602578E-1,-1.475134E-1,3.1579348E-1,2.3675624E-1,-5.083769E-1,3.9910824E0,-5.978592E-1,-1.4831955E0,3.7192482E-1,-7.9825366E-1,-1.3529768E0,6.7225647E-1,2.1929321E0,3.214474E0,1.0365236E0,1.6518693E0,2.4164336E0,-7.5223E-1,-1.2066147E0,-1.0522541E0,-1.140746E-1,9.505129E-1,-1.5874002E0,-2.7796367E-1,-2.165155E-2,1.6608199E0,1.0693725E0,6.335851E-1,-1.3659284E0,1.1300743E0,-6.9005474E-2,9.176389E-2,-1.2346256E0,-6.520317E-1,2.104094E0,8.9316356E-1,5.1618016E-1,1.9786131E0,8.9311934E-1,6.8100885E-2,1.4465421E-2,1.2815952E0,7.922243E-1,4.2377308E-1,4.2175198E0,-2.4081683E0,4.620584E-1,1.4377148E-1,7.517956E-1,5.4981226E-1,5.5442292E-2,-7.4398535E-1,-9.721531E-3,-2.5107658E-1,9.266671E-2,3.2076606E-1,-1.2244194E-1,-1.5147303E0,-3.505257E-1,-1.8385427E-1,-5.894777E-1,5.9105963E-2,6.261706E-1,-1.991765E-1,-1.0933532E-2,-2.7409118E-1,1.0902282E-1,2.2990024E-1,-1.223323E-1,-4.6631026E-1,3.5786155E-1,8.506649E-1,2.1001951E-1,-1.1564779E-1,2.3930429E-1,-1.8387489E-1,5.305054E-1,8.239558E-2,2.893333E-1,-1.056722E-1,2.9097626E-1,2.0909628E-2,-3.4170672E-1,-4.457914E-1,3.4447905E-1,1.3326283E-2,-8.445873E-1,8.2902804E-2,2.6478648E-1,8.489917E-1,-3.852795E-1,1.9191852E-1,-3.42725E-1,3.1743094E-1,1.1957937E-1,-5.8688205E-1,2.3208601E-2,1.942553E-1,-1.9708726E-1],"split_indices":[56,56,56,5,33,1,24,12,48,3,36,50,26,4,35,41,17,5,6,14,14,7,50,12,6,1,0,19,43,17,31,50,45,48,6,0,0,1,1,30,48,15,4,3,1,9,3,24,48,1,49,0,0,19,0,49,4,30,33,26,21,0,0,0,0,0,0,0,0,0,0,0,0,0,0,0,0,0,0,0,0,0,0,0,0,0,0,0,0,0,0,0,0,0,0,0,0,0,0,0,0,0,0,0,0,0,0,0,0,0,0],"split_type":[0,0,0,0,0,0,0,0,0,0,0,0,0,0,0,0,0,0,0,0,0,0,0,0,0,0,0,0,0,0,0,0,0,0,0,0,0,0,0,0,0,0,0,0,0,0,0,0,0,0,0,0,0,0,0,0,0,0,0,0,0,0,0,0,0,0,0,0,0,0,0,0,0,0,0,0,0,0,0,0,0,0,0,0,0,0,0,0,0,0,0,0,0,0,0,0,0,0,0,0,0,0,0,0,0,0,0,0,0,0,0],"sum_hessian":[7.604E3,3.51E3,4.094E3,1.289E3,2.221E3,2.408E3,1.686E3,1.275E3,1.4E1,1.472E3,7.49E2,2.402E3,6E0,7.94E2,8.92E2,6.1E1,1.214E3,5E0,9E0,1.139E3,3.33E2,4.8E1,7.01E2,9.65E2,1.437E3,2E0,4E0,3.05E2,4.89E2,6.51E2,2.41E2,4.2E1,1.9E1,9.24E2,2.9E2,4E0,1E0,4E0,5E0,9.7E1,1.042E3,2.33E2,1E2,1.3E1,3.5E1,7.5E1,6.26E2,6.91E2,2.74E2,1.41E3,2.7E1,1E0,1E0,3.01E2,4E0,4.76E2,1.3E1,1.6E1,6.35E2,2.2E1,2.19E2,1.4E1,2.8E1,7E0,1.2E1,8.79E2,4.5E1,1.6E1,2.74E2,3E0,1E0,2E0,3E0,7.7E1,2E1,1.13E2,9.29E2,1.96E2,3.7E1,4.6E1,5.4E1,9E0,4E0,7E0,2.8E1,3.2E1,4.3E1,6.18E2,8E0,5.53E2,1.38E2,2.33E2,4.1E1,1.384E3,2.6E1,2.4E1,3E0,2.95E2,6E0,2.68E2,2.08E2,1.2E1,1E0,4E0,1.2E1,5.04E2,1.31E2,1.4E1,8E0,1.88E2,3.1E1],"tree_param":{"num_deleted":"0","num_feature":"58","num_nodes":"111","size_leaf_vector":"1"}},{"base_weights":[1.6444586E-1,-1.638019E0,2.5057592E0,-3.2264552E0,-5.099522E-1,2.020495E0,5.661441E0,-4.1337357E0,-1.9654725E0,-1.4385904E-1,-2.1260982E0,1.8226811E0,5.5913453E0,6.1005754E0,-3.0192924E0,1.2998836E0,-4.519998E0,-6.0726795E0,-1.2757761E0,-2.4511962E-1,9.714198E0,-1.3966117E1,-1.8098562E0,6.9277877E-1,2.449868E0,4.2153418E-1,7.2060556E0,5.1924143E0,1.2066081E1,-5.9363804E0,4.0430418E-1,7.9650955E0,-4.5225344E0,-6.6051364E0,-3.6564682E0,-1.2709264E1,-3.1111007E0,9.676136E0,-1.5514573E0,4.4010574E-1,-1.3037989E0,1.2257107E1,-4.814477E-1,-1.6591857E-1,-1.4632423E1,8.7299185E0,-2.1388562E0,6.072971E-1,2.1355734E1,2.6398606E0,-4.0968714E0,-2.7848694E0,1.2392856E1,7.8655405E0,-8.875715E0,-5.881077E0,5.5500875E0,1.6333432E0,1.434817E1,1.8037188E0,-8.276674E0,-1.0410674E-2,5.519381E-1,-3.6515528E-1,1.4832117E-1,-3.539062E-1,2.8885075E-1,-1.0905053E-1,-2.7105057E-1,5.4636866E-1,-7.2933525E-1,-2.574431E-1,3.140523E-1,-2.9829797E-1,6.872386E-1,-1.0470253E-1,1.5625988E-1,2.8120672E-2,-4.797003E-1,-7.313975E-2,6.442856E-1,2.807166E-1,9.507076E-1,-7.8899074E-1,-3.1563875E-1,-2.357554E-1,5.681841E-1,5.4227926E-2,-1.6034524E-1,4.7970273E-2,-2.0149712E-1,1.8300155E-1,1.3017147E0,1.1697675E-1,3.0916363E-1,5.645323E-1,-3.0287492E-1,-2.9082453E-1,2.4675953E-1,-5.007279E-3,7.095939E-1,2.8445613E-1,6.1208564E-1,-7.935392E-1,5.3896245E-2,-5.256012E-1,3.0044124E-1,2.9759553E-1,-1.6928795E-1,-2.0143521E-1,9.0375197E-1,9.441069E-1,4.1336724E-1,-1.4572144E-4,1.12805285E-1,2.2944944E-1,-4.8096702E-1],"categories":[],"categories_nodes":[],"categories_segments":[],"categories_sizes":[],"default_left":[0,0,0,0,0,0,0,0,0,0,0,0,0,0,0,0,0,0,0,0,0,0,0,0,0,0,0,0,0,0,0,0,0,0,0,0,0,0,0,0,0,0,0,0,0,0,0,0,0,0,0,0,0,0,0,0,0,0,0,0,0,0,0,0,0,0,0,0,0,0,0,0,0,0,0,0,0,0,0,0,0,0,0,0,0,0,0,0,0,0,0,0,0,0,0,0,0,0,0,0,0,0,0,0,0,0,0,0,0,0,0,0,0,0,0,0,0],"id":14,"left_children":[1,3,5,7,9,11,13,15,17,19,21,23,25,27,29,31,33,35,37,39,41,43,45,47,49,51,53,55,57,59,-1,61,63,65,67,69,71,73,75,77,79,81,-1,-1,83,85,87,89,91,93,95,97,99,101,103,105,107,109,111,113,115,-1,-1,-1,-1,-1,-1,-1,-1,-1,-1,-1,-1,-1,-1,-1,-1,-1,-1,-1,-1,-1,-1,-1,-1,-1,-1,-1,-1,-1,-1,-1,-1,-1,-1,-1,-1,-1,-1,-1,-1,-1,-1,-1,-1,-1,-1,-1,-1,-1,-1,-1,-1,-1,-1,-1,-1],"loss_changes":[3.2288139E4,7.744576E3,5.0848613E3,2.0454727E3,1.496002E3,2.028374E3,1.7071387E3,2.1949277E3,2.1252947E3,2.0617349E3,